691 100
dbo:Agent 0.002926036 -0.006510715 -0.04569693 0.03958125 -0.05804177 0.08130239 -0.29444253 -0.1455836 -0.12071534 0.09458806 0.023273518 -0.06358088 0.08134709 -0.050380383 0.09372532 0.038310226 0.119954295 0.010065168 -0.15988179 0.04933178 0.069286756 -0.1328322 0.12061265 0.23679303 -0.039932556 -0.27652523 0.11027546 0.14546287 -0.0973161 0.12292445 -0.0652721 -0.02076652 0.14864507 0.31631875 0.11538602 0.02231265 0.04224023 -0.18449539 0.043572415 0.19727866 -0.013305972 0.05190753 -0.180676 0.19579655 0.18411249 -0.030703032 -0.01244313 -0.17433761 -0.028331356 0.07627106 0.13365197 -0.06776174 -0.13139206 -0.026499122 0.17508143 0.19078179 -0.041560497 -0.034046948 0.0062412326 -0.07111756 -0.021914873 -0.041488986 -0.09974827 0.11489186 0.17716417 0.17108957 -0.16499972 -0.1971853 -0.11870346 0.029822309 0.063514724 0.117282584 0.13153903 0.13555177 -0.05242368 0.042604547 -0.08053305 -0.11548713 0.08322833 0.021547433 -0.084099986 -0.049000494 -0.06999799 0.0012532556 -0.005330554 -0.06558777 -0.09325935 -0.068524286 0.17410755 -0.03516494 0.033352755 0.15572013 0.100819536 -0.13578288 -0.022084309 -0.10052526 -0.04865063 0.08628084 0.01858172 -0.07099215
dbo:Person 0.0031876564 0.00093735807 -0.046780482 0.035971932 -0.0029736813 0.035479393 -0.20612374 -0.06552794 -0.08166433 0.08551795 0.011228521 -0.021463828 0.109732874 0.0050990926 0.084618956 0.051057108 0.09902149 0.0103294235 -0.12393049 0.037703168 0.046777308 -0.07850733 0.12951705 0.18274753 -0.0036489232 -0.1868303 0.027129766 0.08478932 -0.046453696 0.05858194 -0.014137233 0.0049915398 0.06259068 0.2645107 0.12410912 0.012925652 0.0351224 -0.13582055 0.039058395 0.13449238 -0.0012160531 0.021348856 -0.11232859 0.13379076 0.16212185 -0.032730293 -0.0035617065 -0.11492038 -0.017629404 0.046318147 0.08375226 0.0031905565 -0.113747604 0.005303348 0.13687648 0.117849626 -0.03403343 0.0075915577 0.0065666744 -0.07452692 -0.00054069574 -0.053288493 -0.07086122 0.10129321 0.12712018 0.122647315 -0.1683518 -0.15162961 -0.11703413 -0.017336287 0.08408134 0.12189597 0.12536657 0.08040287 -0.050047975 0.03480386 -0.05898789 -0.084170714 0.05986137 0.04558661 -0.06285065 -0.08048252 -0.03484453 -0.047758013 0.01506071 -0.03520722 -0.03513566 -0.0646412 0.115167625 -0.02339364 0.00046505278 0.12465325 0.014833617 -0.08389829 -0.04395416 -0.058152027 -0.026216859 0.08198001 0.003834341 -0.053804915
dbo:Place -0.10005099 -0.29301673 -0.020616485 0.0913893 0.30613095 -0.03891196 0.03296579 0.37872908 0.08724423 0.09554064 -0.09684569 0.04730387 0.08393981 0.4602348 0.011947319 0.060321137 -0.086658776 0.036220573 0.07743065 -0.11984896 -0.03719354 0.24258344 0.11048489 -0.21528518 0.1804442 0.6017198 -0.4962496 -0.2857827 0.21904132 -0.116157055 0.4104352 0.18033683 -0.18900818 -0.0648101 -0.13792458 0.14764164 -0.018909628 0.05749872 -0.1415889 -0.17349915 -0.0018832013 -0.029644053 0.050343677 -0.51505977 0.15181866 -0.1746689 -0.054067608 0.2152103 -0.0014483253 -0.18066874 -0.23270762 0.46046615 0.1375831 0.14452066 0.016298765 -0.13225576 -0.14834005 0.3532685 -0.16701518 -0.32705516 0.12345101 0.15875155 0.018468685 0.09991803 0.05276635 -0.3250379 0.08898325 0.22903807 -0.12661059 -0.20781644 0.26238295 -0.05101144 0.17154916 0.0041129286 0.33380264 -0.15681057 0.13776745 0.24671444 -0.090935156 -0.06274683 0.11879613 -0.020270739 0.16878134 -0.07083038 0.110397406 0.082500495 0.23025595 0.1762043 -0.18537061 0.23629774 -0.23933858 0.12171602 -0.2245539 0.06387821 -0.12988915 0.26469922 0.11947778 -0.090244 -0.15530805 -0.018174227
dbo:Location -0.09441408 -0.2880768 -0.016396932 0.082613744 0.32841778 -0.045432758 0.027577337 0.40753418 0.10364186 0.10907372 -0.11979024 0.047833726 0.12078338 0.49090707 0.0033432043 0.057336725 -0.089804955 -0.0031962572 0.07475215 -0.1538775 -0.018753162 0.2574045 0.14551567 -0.21855168 0.17613311 0.6281139 -0.51070726 -0.2885204 0.25049067 -0.15744117 0.44069844 0.21964097 -0.1882411 -0.079413645 -0.14560695 0.12178073 -0.0043885983 0.06515996 -0.11361975 -0.18894964 0.005957481 -0.06597881 0.046519853 -0.5237662 0.18381286 -0.17882459 -0.024196254 0.21275425 -0.03493652 -0.20325895 -0.2737406 0.42044887 0.13079971 0.17714743 0.024515785 -0.13413742 -0.15682593 0.38940623 -0.19947968 -0.33937132 0.108482495 0.13757963 0.055487294 0.0988075 0.06590502 -0.34020594 0.06375962 0.28220752 -0.122711055 -0.2638266 0.24048908 -0.027766893 0.18270598 -0.016098673 0.32786003 -0.1533297 0.13791093 0.236076 -0.09631459 -0.054713145 0.09675809 -0.024171205 0.21323128 -0.072321385 0.101220645 0.085117616 0.24967563 0.19168316 -0.19393049 0.2236514 -0.23347491 0.11595745 -0.24868514 0.049918108 -0.1421298 0.27444893 0.10113136 -0.115882546 -0.18443899 -0.049255323
dbo:PopulatedPlace -0.10529989 -0.22203228 -0.035834227 0.10505118 0.18898673 -0.029590975 0.021784145 0.2897159 0.027143084 0.050924934 -0.07974603 0.06032362 0.0923134 0.39456767 -0.0017196645 0.049249347 -0.097217694 0.014521445 0.0794675 -0.15684891 -0.0284533 0.2382255 0.07351934 -0.19317041 0.13480236 0.5140212 -0.42019978 -0.23475939 0.2056068 -0.123421535 0.3321733 0.102303766 -0.15581256 -0.080918185 -0.12514478 0.13322425 -0.03447877 0.031260148 -0.118286945 -0.18395235 0.06531985 -0.069319956 0.1258399 -0.44346875 0.13066594 -0.14551859 -0.015016667 0.21492127 -0.05441198 -0.18177897 -0.2237434 0.37090382 0.11728777 0.1399904 -0.0015845262 -0.08878499 -0.062157117 0.30741376 -0.09975866 -0.25868806 0.08811099 0.13575457 0.013417968 0.086052164 0.00020305734 -0.265161 0.06746036 0.18792081 -0.072763875 -0.16364995 0.18604425 -0.016630631 0.12941566 -0.043847702 0.2386594 -0.17875546 0.101623766 0.1657687 -0.05310517 -0.031664044 0.043204512 -0.025829637 0.14302991 -0.06922047 0.11254984 0.029086936 0.18726169 0.14868586 -0.11398591 0.16470216 -0.15876716 0.11736977 -0.17266412 0.037052553 -0.10959907 0.23350678 0.12023636 -0.114654236 -0.15343334 0.0031964432
dbo:Organisation -0.008007884 0.005456682 -0.0735308 0.04602768 -0.042325888 0.06672244 -0.30319804 -0.18913834 -0.16346578 0.0961995 0.01830876 -0.05985563 0.11446978 -0.05385332 0.0809088 0.036995657 0.10400095 -0.010065706 -0.16963953 0.08689649 0.07789578 -0.107389905 0.12701401 0.25130743 -0.016785173 -0.28306794 0.11433431 0.16419815 -0.10620829 0.10934384 -0.048125006 0.004561148 0.1433229 0.3145902 0.13621654 -0.02906748 0.041718524 -0.17578572 -0.008279291 0.18907152 -0.02136146 0.085188776 -0.16461198 0.2113338 0.14228499 -0.011182897 -0.0012309565 -0.19694087 -0.028641243 0.04483386 0.1287037 -0.0765191 -0.12038179 -0.053086188 0.18365183 0.19649088 -0.051974244 -0.05049588 0.007932956 -0.08132849 0.01933445 -0.060727824 -0.08098795 0.087180115 0.18357162 0.1704136 -0.16956249 -0.21322033 -0.1431267 0.031525373 0.08659845 0.11031473 0.1436936 0.10209056 -0.058018737 0.042543072 -0.10043065 -0.108995795 0.093476176 0.017194323 -0.072249 -0.030770125 -0.077347666 0.0011158318 0.03716966 -0.025367247 -0.069637455 -0.08114197 0.18519877 -0.06499734 0.0455111 0.14454018 0.11371161 -0.11395694 -0.02394333 -0.11457755 -0.014106864 0.06903805 0.024637166 -0.05559974
dbo:Work -0.0029288358 -0.029457442 -0.08649708 -0.037656616 0.009957058 -0.02959644 -0.12791333 -0.041583 -0.057356447 0.09427518 -0.053053558 -0.014360346 0.052997194 0.046361074 0.050169233 0.037393425 0.17141701 0.00042607958 -0.05085192 0.0118508 0.07057005 -0.12148942 0.12047138 0.23164651 0.06817315 -0.09083833 -0.028516911 -0.0031488922 0.008922417 -0.0113259815 -0.017504806 -0.0032788494 -0.053811625 0.16668239 0.0772734 0.07302016 0.018078854 -0.12183459 0.16372769 0.06798682 0.040010277 -0.0039396547 -0.076292604 0.1643222 0.1581741 0.032601047 0.053175993 -0.07429755 -0.05063048 0.010903746 0.050606877 0.085901186 -0.1359184 0.089189135 0.12745729 0.05758729 -0.054096323 0.060646962 0.027154543 -0.07045456 -0.014450872 -0.0927169 -0.013592863 0.08334233 0.11679826 0.17660658 -0.17991377 -0.056354195 -0.10366869 -0.02904181 0.039265208 0.17640568 0.071959496 0.01317148 -0.064956695 0.062076718 -0.123430654 -0.14508165 0.016508581 0.057926062 -0.07583307 -0.18721 0.025706077 -0.13969468 -0.03196431 -0.12197283 0.050275646 -0.002254427 0.052661642 -0.029341929 0.037272528 0.16020401 0.011445677 -0.06915242 -0.07123101 -0.091196634 0.004442617 0.077500775 0.028116647 -0.08663515
dbo:Settlement -0.07072341 -0.19381414 -0.046919294 0.084256314 0.19143891 -0.05321752 0.014938217 0.27284932 0.06762122 0.04420364 -0.060405657 0.032932788 0.047988337 0.3290767 0.00096356694 0.03691559 -0.065526806 -0.021323094 0.05486759 -0.09105665 -0.03961899 0.22575825 0.078906566 -0.17625323 0.14630492 0.42851064 -0.3649779 -0.19463854 0.15032218 -0.1148061 0.2947769 0.117240906 -0.12221682 -0.05515769 -0.115132235 0.11566125 -0.035208154 0.023138827 -0.08145503 -0.12495446 0.022157865 -0.022414088 0.081964895 -0.35892218 0.09723772 -0.14749819 -0.049720626 0.16642208 -0.044110026 -0.12478449 -0.20733303 0.3047321 0.088158846 0.0939615 0.001037133 -0.10687708 -0.063529454 0.21892457 -0.09524023 -0.21886209 0.086578384 0.112543635 0.0077695986 0.06259042 -0.009277187 -0.23868416 0.063570745 0.15694158 -0.08012658 -0.16966033 0.1590751 -0.018097894 0.0818227 -0.04572843 0.21749045 -0.13116603 0.09103711 0.15714496 -0.064100854 -0.018498786 0.059568696 -0.03590216 0.12597522 -0.047622968 0.0832596 0.05288517 0.12787767 0.11449539 -0.130194 0.16543485 -0.13262305 0.08434117 -0.15328231 0.031943314 -0.09434631 0.20347889 0.10964163 -0.0755166 -0.13494769 -0.025948096
dbo:Country -0.08032003 -0.17097712 -0.047037166 0.083875746 0.18304852 -0.038841844 0.009454451 0.23149775 0.067644514 0.06707561 -0.07228735 0.032273635 0.051174533 0.3171459 0.010504812 0.02932143 -0.035869114 -0.018070383 0.050755918 -0.10674302 -0.04274116 0.20164898 0.07002246 -0.14388755 0.13277921 0.39001948 -0.33735126 -0.18275931 0.15426975 -0.10117074 0.28212613 0.09551985 -0.12536258 -0.0539749 -0.09127219 0.11490725 -0.0072145667 0.032789566 -0.07952506 -0.10885653 0.01326874 -0.033574816 0.071670905 -0.34013253 0.10965891 -0.11389137 -0.040944904 0.14952597 -0.054327954 -0.1350902 -0.1822123 0.2742432 0.084113784 0.10130713 0.007880583 -0.08777128 -0.06364999 0.22184071 -0.093920335 -0.2189942 0.09111278 0.09249887 0.014438703 0.06376368 0.0013052365 -0.21334928 0.04779735 0.13808322 -0.07015356 -0.16154768 0.14510691 0.010620373 0.10594511 -0.025041262 0.18126789 -0.119074635 0.07437972 0.12638806 -0.038543593 -0.02758981 0.058015343 -0.031276096 0.09834896 -0.062757365 0.07541536 0.024834456 0.13184914 0.11781959 -0.11771621 0.15182824 -0.14139938 0.089057654 -0.14362045 0.034133248 -0.09240731 0.16878769 0.0870758 -0.079737864 -0.11798787 -0.016587459
dbo:City -0.07450414 -0.18645093 -0.01421451 0.07891045 0.1931102 -0.026430719 0.048134677 0.25028795 0.0630199 0.050005518 -0.07416958 0.031173106 0.038551085 0.32219732 -0.0054057455 0.021513948 -0.071533985 0.01475741 0.06671509 -0.10549133 -0.023021633 0.19026685 0.04704499 -0.16109805 0.112790875 0.40914825 -0.33389306 -0.1783673 0.14513503 -0.08704397 0.2781372 0.10811162 -0.1409063 -0.09140308 -0.08325055 0.089387946 -0.009969632 0.041123483 -0.082064815 -0.14807996 0.023356514 -0.030600816 0.075520895 -0.36198804 0.08572473 -0.10690401 -0.032112427 0.16977158 -0.03144132 -0.13586053 -0.17331992 0.30308834 0.08905188 0.100039124 0.0049083605 -0.079260066 -0.07897041 0.22759591 -0.111193374 -0.21703297 0.085661024 0.10386974 0.009488725 0.052360173 0.0057827565 -0.21744333 0.055538632 0.15938605 -0.049541183 -0.13495564 0.1681128 -0.033473745 0.10714074 -0.025830645 0.2086594 -0.11339242 0.085098654 0.14145763 -0.050065074 -0.034776058 0.07199304 -0.016828177 0.108439155 -0.06290447 0.08176483 0.03583532 0.15293586 0.13026984 -0.12498027 0.13705832 -0.14528802 0.066462785 -0.16784698 0.059216928 -0.08303095 0.18971585 0.08877313 -0.07277771 -0.120553695 0.00018265459
dbo:State -0.06517465 -0.15413128 -0.03833864 0.0675681 0.14889756 -0.040402316 0.016823325 0.21795475 0.047586065 0.048294872 -0.0695822 0.03651943 0.058799744 0.28511927 0.004656727 0.029936647 -0.040494315 -0.012877023 0.056266453 -0.09379934 -0.035294086 0.1728174 0.05502838 -0.14133704 0.10762771 0.3413646 -0.3105263 -0.17258334 0.14792752 -0.070706636 0.25148803 0.07741247 -0.11255223 -0.067045785 -0.09144386 0.095336616 -0.014761073 0.015823271 -0.08052124 -0.096962914 0.016434522 -0.03207245 0.06787306 -0.30643946 0.08256374 -0.11383003 -0.01991204 0.14571993 -0.037013564 -0.11761326 -0.15557021 0.24565554 0.063319795 0.09342798 -2.1825894e-05 -0.09336394 -0.0631717 0.20260659 -0.07756309 -0.17194381 0.0810226 0.09797884 0.010470365 0.07659319 -0.0010850403 -0.1948699 0.06051728 0.1306014 -0.055455826 -0.13662559 0.13440607 0.0028398656 0.08447492 -0.025420299 0.178054 -0.105436005 0.073450394 0.10737672 -0.030671129 -0.022013435 0.052082773 -0.033863112 0.08983451 -0.05189965 0.07564837 0.016674098 0.13071 0.10792477 -0.10813822 0.1203259 -0.11999701 0.06918132 -0.12577184 0.029752318 -0.08653871 0.1422716 0.07223102 -0.07271415 -0.1104415 -0.012142548
dbo:Company -0.0073855836 -0.0154166715 -0.036801692 0.018827196 -0.029810928 0.028010473 -0.19577664 -0.09612629 -0.091141395 0.08139555 0.0067587737 -0.052763786 0.074176185 -0.025807705 0.04150019 0.041466616 0.07045549 0.0076689715 -0.10905412 0.0337588 0.04333677 -0.09778986 0.092736274 0.16280268 -0.020199481 -0.17688292 0.068711855 0.10109615 -0.05883888 0.07916546 -0.026803479 -0.013129119 0.08411214 0.22599937 0.08331456 -0.0024029464 0.0472468 -0.12805963 0.020438816 0.13710633 -0.022382244 0.03900087 -0.1258425 0.13154809 0.14279051 -0.014761692 -0.003067347 -0.11293676 -0.016268691 0.054145124 0.070751026 -0.030345526 -0.093472175 -0.015868274 0.13756023 0.12570855 -0.03186627 -0.007473811 0.0023868785 -0.049997173 0.015362975 -0.03541694 -0.05837456 0.06620606 0.11965202 0.10773155 -0.116150655 -0.1356041 -0.11653071 0.016604811 0.053770807 0.0824672 0.0837411 0.075283796 -0.020065393 0.041449435 -0.05883905 -0.063644335 0.05494146 0.024496391 -0.055929244 -0.040827367 -0.03447957 -0.0114130825 0.0030634177 -0.019957611 -0.055727832 -0.042061713 0.11183797 -0.024828292 0.019537756 0.11177951 0.07369047 -0.08558993 -0.031047178 -0.061570704 -0.017479988 0.051575843 0.009652323 -0.06310395
dbo:Award -0.033034228 -0.095602915 -0.02869427 0.0345418 0.05693144 0.0092137735 -0.13709433 0.06321387 -0.042549603 0.08137128 -0.03245811 -0.020549696 0.10384961 0.13195606 0.04863084 0.06632137 0.07173372 0.012261941 -0.0733905 -0.011165945 0.034510385 -0.024406103 0.15285926 0.10491428 0.06126752 0.02377033 -0.101504266 -0.026835343 0.029921874 0.0029228693 0.100409046 0.041110337 -0.0030718853 0.17966487 0.043568924 0.059854973 0.024496427 -0.07103939 0.031819947 0.06006514 -0.020881593 0.003221223 -0.12343975 -0.02021541 0.1830548 -0.08430363 -0.02132384 -0.050114356 -0.020963863 -0.007226208 -0.016643832 0.13166241 -0.070515566 0.08258135 0.127896 0.050611846 -0.06260517 0.13493754 -0.053296097 -0.1529316 0.042016037 -0.01583167 -0.028381482 0.0783534 0.12112146 0.0080371 -0.13686386 -0.02922595 -0.120108336 -0.0950598 0.10761491 0.101516046 0.11419757 0.043193836 0.05363087 0.0028076142 -0.009260463 -0.021991013 0.008388001 0.029282419 -0.021611288 -0.077467255 0.025200145 -0.076663285 0.016417021 -0.0076804017 0.044518247 0.0040780096 0.015867416 0.06302319 -0.04807787 0.13585013 -0.04016887 -0.038150527 -0.09957696 0.024186192 0.019958721 0.03196888 -0.0398528 -0.07493559
dbo:TopicalConcept 0.01969439 -0.042802162 0.008715367 0.024537819 0.049343444 0.045667056 -0.10340178 -0.03150805 -0.0067410744 0.014202462 0.007727518 -0.024943626 0.08975021 0.057522252 0.048858173 0.05979487 0.06303291 -0.011133963 -0.050066337 0.008163735 0.0792206 -0.052254457 0.09472297 0.09647697 0.056269966 -0.08447695 -0.07577536 -0.01982716 -0.0057229497 0.012477049 0.0032786175 -0.023294054 0.034351062 0.1390549 0.04777429 0.014474724 0.0043989886 -0.09173834 0.067095295 0.07017368 0.035935488 -0.03112682 -0.124503 0.0655458 0.14585553 -0.05247164 -0.02297424 -0.07888672 -0.022226369 -0.011654655 0.033293836 0.04783608 -0.09741079 0.08573627 0.0823455 0.06924234 0.00016748827 0.09486528 -0.044994093 -0.11393754 0.041800167 -0.0348605 -0.010243587 0.08890909 0.07542738 0.040603515 -0.1375253 -0.042570923 -0.107000165 -0.03594056 0.020895382 0.12173841 0.0620905 0.039361462 0.008401604 -0.033563223 -0.06356038 -0.06727303 0.0060705543 0.026460785 -0.070403 -0.106719695 0.041385625 -0.08773068 -0.0047813216 0.0025422852 0.0031554324 -0.013419336 -0.009834312 -0.002421544 -0.007874474 0.09151152 -0.05190393 -0.014569776 -0.087079406 -0.0015319083 0.0044362596 0.066062234 -0.016294282 -0.08289992
dbo:NaturalPlace -0.033764172 -0.2650527 0.20046991 -0.09046894 0.30691814 -0.09415014 0.14938235 0.47535956 0.20858414 0.023941364 -0.0015247285 -0.033316523 0.11288538 0.25660858 -0.05950682 0.106928244 -0.040569626 0.078500345 0.08087363 -0.010138342 0.10011229 0.054990932 0.20784083 -0.10930372 0.16043045 0.55917615 -0.28635657 -0.19038261 0.1616523 -0.17889443 0.40752864 0.35301062 -0.19274195 0.033897355 -0.10562698 0.017207732 0.114082076 0.2254376 -0.002926359 -0.10237132 -0.2076428 0.029784735 -0.30299032 -0.34869987 0.21581413 -0.18540539 -0.041675128 -0.009178254 0.13030326 -0.066178344 -0.10850987 0.36528054 0.10861385 0.13414414 0.109552726 -0.09824799 -0.31458315 0.33194014 -0.3321995 -0.32645974 0.09383639 -0.0017316688 0.11968436 -0.12647286 0.30104452 -0.30030486 -0.094133586 0.30660632 -0.15683512 -0.3261002 0.26976413 -0.0915713 -0.03300085 0.09734243 0.33362502 -0.032904577 0.14524463 0.36435816 -0.17618775 -0.07186685 0.25443992 -0.017043903 0.3100525 -0.11275783 -0.005053472 0.27118424 0.19060309 0.06529423 -0.371567 0.25915116 -0.30097923 -0.05554194 -0.2537265 0.10977886 -0.20105477 0.2528376 0.11648914 -0.0269758 -0.18615699 -0.1603713
dbo:EducationalInstitution -0.029071663 0.0016136657 -0.048230764 0.041945122 -0.07380976 0.030312058 -0.2442878 -0.16779271 -0.120049775 0.10337238 0.03420016 -0.049151458 0.0894418 -0.044994466 0.03297233 0.03905672 0.06139085 -0.006026004 -0.1510822 0.04288448 0.072755866 -0.12955625 0.08157796 0.20570116 -0.023221985 -0.27516463 0.09593856 0.1250411 -0.094105154 0.11156797 -0.05597547 -0.033445805 0.1177862 0.23602735 0.092941225 -0.005919746 0.033560906 -0.12924892 0.021108145 0.17467284 -0.033926897 0.073664255 -0.15409088 0.1789565 0.13434969 0.008931458 0.012051193 -0.15453775 -0.021472266 0.06289367 0.10381398 -0.062124703 -0.08811862 -0.028236998 0.13106608 0.16918579 -0.044483293 -0.016775241 0.023116257 -0.05244433 0.0122639565 -0.039068162 -0.048828296 0.08847071 0.13250208 0.15447414 -0.12506033 -0.15393524 -0.12644367 0.025507417 0.026516397 0.08459033 0.120226085 0.079333596 -0.03327873 0.035737257 -0.071447 -0.08237797 0.07604311 -0.0072326204 -0.08460584 -0.005620778 -0.028842684 0.034141276 0.014581641 -0.03509349 -0.061310545 -0.0586461 0.16592471 -0.05960046 0.051828537 0.13531215 0.09155147 -0.1214848 -0.034933243 -0.0911223 -0.007949233 0.04125727 0.03512048 -0.06897685
dbo:ChemicalSubstance -0.0488657 -0.03826936 0.0075017875 0.008528278 -0.013881381 -0.004999934 -0.051296942 -0.04136734 -0.05478061 0.045792032 -0.05852575 -0.023878809 0.03934001 0.051082537 0.06339376 0.080932274 0.03620541 0.018470982 -0.0581151 -0.009440693 0.06503873 -0.07419768 0.109690644 0.11594434 0.03729185 -0.028684104 -0.02634992 0.035007782 0.00814783 0.040146552 -0.023319198 -0.0439587 0.006608177 0.16176048 0.09366532 0.054959558 -0.024729496 -0.032968692 0.06263218 0.011725906 -0.012076567 0.022772565 -0.10018881 -0.004700866 0.1312143 -0.024439488 0.02521934 -0.051560998 -0.038748927 0.00469567 0.038548194 -0.015380104 -0.056591187 0.073112056 0.029096441 0.050397195 -0.05090381 0.10811477 -0.023781113 -0.074995115 0.034537967 -0.036820136 0.0061291773 0.020506063 0.11468274 0.06141196 -0.104864515 -0.037607946 -0.028340833 -0.029238204 0.022948178 0.05062271 0.087334305 0.037549872 -0.046679795 0.0021004593 -0.0026459182 -0.095711336 -0.026833123 0.070710555 -0.069715545 -0.08322679 -0.030860612 -0.03265277 -0.011142965 -0.043536823 0.038874295 -0.04681374 0.0354944 0.038033977 0.016439963 0.087108746 0.0013537966 -0.019928265 -0.102863334 -0.012898553 0.0016873239 0.03134128 0.03756482 0.0032328495
dbo:ChemicalCompound -0.019379262 -0.0066247256 0.012929797 -0.022014376 -0.03545484 0.048940517 -0.07874226 0.04724791 -0.021465506 -0.004140406 -0.019215047 -0.012699663 0.084545255 -0.0017401595 0.058520544 0.063254744 0.07421097 0.007467417 -0.041497488 -0.016444206 0.015261429 0.0064790724 0.10718269 0.102656275 0.0555976 -0.04124997 -0.023610486 -0.023399372 -0.0059889047 -0.013407359 -0.018178985 -0.019849172 -0.007528735 0.1349379 0.03672844 0.024297554 0.050066102 -0.006544183 0.05506822 0.06988564 -0.019260548 -0.033821423 -0.046177108 0.037506748 0.11411021 -0.014995251 0.030109162 -0.08025311 -0.024256637 0.02991714 0.013756664 -0.016467785 -0.06807465 0.018977497 0.08833109 0.026227199 -0.053323045 0.059272107 0.031774282 -0.04492056 -0.0016208295 -0.022873648 -0.008030568 0.019014487 0.03477722 0.065779366 -0.10471704 -0.092138976 -0.101021424 -0.009743844 0.026770283 0.06747446 0.07989658 0.08535622 -0.008925188 -0.0115173925 0.016414097 -0.08603457 -0.025804792 0.04051677 -0.030493539 -0.07232783 -0.033396784 -0.020801453 -0.0011582712 0.011283552 0.038063146 -0.03993846 0.03567543 -0.0151529815 -0.017993037 0.102554396 -0.035991684 -0.048039123 -0.03471266 0.0015160921 -0.0521707 0.02552296 0.014164022 -0.052021496
dbo:University -0.011216162 0.011663501 -0.05222049 0.041450407 -0.016172225 0.043377355 -0.24136297 -0.13163564 -0.09895089 0.08326705 -0.018679366 -0.06213626 0.051925845 -0.035457693 0.06624313 0.039087962 0.09118979 0.008374826 -0.100541 0.05157614 0.059199464 -0.06980182 0.0719353 0.18189104 -0.020267688 -0.19702548 0.11206353 0.13342507 -0.070634976 0.0782629 -0.045661815 -0.01624145 0.110462785 0.24831273 0.09313586 -0.0188904 0.04243734 -0.14787298 0.00089717587 0.1463663 -0.014307231 0.042228486 -0.13166702 0.14927432 0.14850274 -0.00085048133 -0.01824525 -0.17809355 -0.0059439717 0.034348443 0.109858565 -0.06392384 -0.07179391 -0.029880127 0.15380955 0.16403359 -0.06176907 -0.036934413 0.02814101 -0.07105787 0.018571464 -0.023107883 -0.07169767 0.059488297 0.15890008 0.09783987 -0.10517931 -0.18318583 -0.1101187 0.035231523 0.073362134 0.10164261 0.07878357 0.08096206 -0.016332183 0.028266188 -0.071178555 -0.06917225 0.05096831 0.032260105 -0.05769908 -0.028816696 -0.057031907 0.0052468474 -0.0029659586 -0.04272517 -0.07637886 -0.03616702 0.11792055 -0.02241966 0.015380245 0.10386616 0.11328801 -0.10622602 -0.023769703 -0.092451006 -0.018153287 0.042778328 0.03157492 -0.079686314
dbo:ArchitecturalStructure -0.049103636 -0.37828556 0.033519994 0.15973054 0.20547758 -0.03808926 -0.10277537 0.35444996 -0.02986368 0.13594593 -0.08675278 0.032498777 0.109218694 0.397361 -0.041054152 0.09045981 0.02037533 0.008029405 0.019001767 -0.1137621 -0.08232953 0.05070191 0.22067337 -0.1946555 0.16719636 0.38139617 -0.37361437 -0.2187353 0.17072047 -0.00487909 0.3780349 0.16874738 -0.12554982 -0.0014582747 -0.047964986 0.21657556 0.058727 0.12049639 -0.06377253 -0.051151335 -0.017201342 -0.02473209 -0.10815504 -0.29615712 0.2848131 -0.2803861 0.023635218 0.1491085 0.0037755063 -0.031762086 -0.22668278 0.48545155 0.0539354 0.1911109 0.11115378 -0.07152259 -0.09917923 0.4359449 -0.17913343 -0.31139314 0.12841669 0.15074387 0.06978945 0.07864011 0.03525236 -0.2542836 -0.054047752 0.09667243 -0.13884224 -0.1821037 0.28859484 0.051754337 0.16411367 -0.017129363 0.33297276 -0.10808636 0.09983549 0.16178417 -0.007867549 -0.030360864 0.07731754 -0.027002338 0.037191477 -0.18006398 0.13369253 0.10967808 0.19807875 0.088665284 -0.028537335 0.29901716 -0.11265561 0.0948963 -0.15742326 0.06695419 -0.23839779 0.22234388 0.26260963 -0.11218429 -0.20341186 -0.036705155
dbo:BodyOfWater -0.0353868 -0.2941842 0.22913764 -0.11673764 0.3566137 -0.08507135 0.1614335 0.50776064 0.22484636 0.021457754 0.0012522216 -0.019066505 0.15307195 0.24120192 -0.05444483 0.11316038 -0.017851587 0.12659328 0.031776156 0.0216795 0.1157425 0.023113659 0.23822227 -0.075560376 0.19231461 0.5556085 -0.30603722 -0.18880762 0.16134354 -0.21509877 0.431207 0.38607356 -0.21395202 0.068592034 -0.11474098 -0.026887339 0.1162904 0.24089593 -0.023614522 -0.089565545 -0.22392875 0.05230153 -0.36036956 -0.35465872 0.2264814 -0.21258962 -0.030579776 -0.051261876 0.15053706 -0.07154874 -0.06974869 0.36472723 0.082019374 0.14575934 0.12464007 -0.11274339 -0.34747198 0.3428568 -0.36993423 -0.3292326 0.09928705 -0.006099724 0.13152055 -0.15111177 0.37397 -0.3060046 -0.12292588 0.34621042 -0.1810537 -0.34680226 0.31383863 -0.073139586 -0.034413394 0.09152966 0.38033545 -0.032797 0.1752484 0.40911046 -0.17136326 -0.08081192 0.26765963 -0.039820563 0.36750475 -0.12752494 -0.012544834 0.31020847 0.17511618 0.050980877 -0.39241016 0.25003812 -0.33598408 -0.039364103 -0.2761104 0.09266684 -0.21509778 0.2818456 0.13012019 -0.031924516 -0.18006065 -0.1929101
dbo:OfficeHolder 0.0053963135 -0.034574363 -0.02349734 0.033305015 0.0026005043 0.036575716 -0.15043502 -0.02571151 -0.06403831 0.064846 -0.002970291 -0.027613828 0.07137248 0.024361003 0.06444305 0.03345793 0.07784684 0.012137044 -0.08686279 0.015014472 0.028967563 -0.06751834 0.108427875 0.13606755 0.008568763 -0.1112785 -0.007019627 0.040692363 -0.024151716 0.03627708 0.009408377 0.008158556 0.038786165 0.19755098 0.080239445 0.02761322 0.029198088 -0.101774745 0.038779493 0.0851552 -0.008578148 0.017055117 -0.09538636 0.08557783 0.13093686 -0.032380737 -0.007925081 -0.07388394 -0.009655164 0.02483007 0.045813415 0.026452046 -0.08841281 0.018012986 0.11073567 0.07911237 -0.029558515 0.033335406 -0.006940635 -0.073394954 0.010389096 -0.03438374 -0.04083535 0.07505548 0.098413505 0.081369065 -0.13020243 -0.09211857 -0.08693946 -0.028045999 0.06318483 0.09519325 0.09813301 0.06489722 -0.019359617 0.021841293 -0.03462602 -0.056818303 0.03213739 0.027433401 -0.03625231 -0.05041699 -0.027421618 -0.048525095 0.010755047 -0.019292321 -0.013819332 -0.03867383 0.07354799 0.008570993 -0.006144408 0.10240554 0.003413924 -0.055323582 -0.04450868 -0.030200263 -0.015210908 0.04596122 -0.007834311 -0.04979439
dbo:Activity -0.033490237 -0.11240814 -0.028546518 0.06175769 0.04764693 -0.0059389197 -0.1716352 0.064791426 -0.03500972 0.08932758 -0.036727365 -0.03674976 0.10507394 0.14106278 0.07417695 0.07217843 0.102477916 0.017186496 -0.107322775 -0.0028805013 0.061041355 -0.022463322 0.18044047 0.136651 0.052567378 0.019632977 -0.11584163 -0.015603461 0.039476383 0.007447579 0.11509856 0.046929006 0.006874449 0.24071738 0.07030316 0.076703995 0.026895419 -0.106526434 0.03683633 0.06411758 -0.010065788 -0.00174025 -0.14100102 -0.007240623 0.24010623 -0.09957325 -0.039721787 -0.06960522 -0.019164184 0.017978098 -0.0031392386 0.16306452 -0.06909828 0.1028803 0.15585268 0.056417976 -0.08325858 0.15679316 -0.056966804 -0.17359255 0.05636446 -0.015673866 -0.015901634 0.096972205 0.13559268 0.011289975 -0.17717902 -0.060718995 -0.15185794 -0.09460412 0.13965198 0.12350652 0.13942671 0.045742635 0.04460069 0.01584752 -0.0021707863 -0.035382994 0.012568834 0.045547478 -0.050065074 -0.10780707 0.022826124 -0.10106844 0.0077996594 -0.026469465 0.047622308 -0.0066856844 0.011483612 0.08494698 -0.036568187 0.15050402 -0.038677573 -0.045453854 -0.12191128 0.010424507 0.007493501 0.0369538 -0.06025865 -0.09616023
dbo:Film -0.0057460563 -0.041668274 -0.050648533 0.007093773 -0.0093511045 -0.006871351 -0.107938655 0.008021207 -0.04157013 0.042737108 -0.022527374 -0.010790429 0.074702375 0.0719416 0.037818536 0.052773546 0.105314694 0.02169871 -0.060475506 0.008696375 0.03429282 -0.04928394 0.10455268 0.13583852 0.027352234 -0.064454004 -0.019189954 -0.024530541 0.009290267 0.0077552004 0.024659123 -0.005470948 -0.006298894 0.12710743 0.059000533 0.06835876 -0.005234685 -0.06291877 0.10304888 0.062294457 0.0013077434 0.008364052 -0.08027387 0.059639823 0.124182545 -0.02723117 0.012476949 -0.058896303 -0.0472324 0.0023680648 0.015233009 0.07732891 -0.091577075 0.06629259 0.11462019 0.040379785 -0.052269194 0.07653634 -0.004584338 -0.09052113 0.00019376597 -0.030013425 -0.017023955 0.04740123 0.07055691 0.069105186 -0.11285456 -0.03792258 -0.07837593 -0.049363855 0.04876063 0.101908505 0.069817156 0.026098853 -0.024693305 0.033141214 -0.049419817 -0.08598689 0.015647078 0.06287734 -0.070849374 -0.09795998 0.028928148 -0.088303976 -0.01368883 -0.052364692 0.038797997 0.005037458 0.03317162 -0.007840013 0.0388813 0.10097483 -0.0078038257 -0.011056903 -0.06612551 -0.030541796 -0.027295286 0.03474403 0.0017429371 -0.056138575
dbo:TelevisionShow -0.008701873 -0.040630687 -0.04662084 0.008704288 0.0024277803 -8.882089e-05 -0.1074201 0.01145379 -0.031943005 0.043872256 -0.024957834 -0.012124617 0.070020035 0.06543361 0.03425072 0.05179482 0.09754064 0.021157397 -0.05571233 0.007325584 0.037536465 -0.052360408 0.10754722 0.13481031 0.03174556 -0.05362185 -0.019660095 -0.024588324 0.0075660106 0.007000575 0.027207425 0.0010704848 -0.015461103 0.12753873 0.061455656 0.060802583 0.0006835819 -0.065476075 0.09878396 0.05345372 0.004087696 -0.00013827787 -0.07821308 0.054008666 0.12477884 -0.025856739 0.009177088 -0.061811846 -0.035188466 0.0075038886 0.019988108 0.072767 -0.0879501 0.06261063 0.105026394 0.042887546 -0.050378956 0.08251446 -0.0053778905 -0.08763132 -0.00179328 -0.031894695 -0.009967674 0.05355885 0.075994976 0.06936712 -0.115249425 -0.026411744 -0.08129735 -0.054517385 0.0549923 0.09673126 0.07358489 0.018526921 -0.01582198 0.029572183 -0.047719214 -0.075505 0.013992298 0.052330937 -0.060533218 -0.09823585 0.021912208 -0.08185605 -0.013709679 -0.04842289 0.037778635 0.0015827301 0.025700167 -0.0075294026 0.022492578 0.09281143 -0.008480016 -0.010472298 -0.06850673 -0.032534886 -0.020440392 0.032424398 -0.0001966377 -0.06216567
dbo:Media -0.011308331 -0.03433288 -0.006179246 0.007596724 0.02318824 0.00052101654 -0.04918462 0.029834455 -0.016172724 0.023530753 -0.010871166 -0.003176835 0.03400794 0.047180515 0.013634821 0.025507262 0.02950942 0.0003618917 -0.023798103 -0.0045471983 0.009226718 -0.009153394 0.054265328 0.032037765 0.016387686 0.008388002 -0.033844575 -0.007502398 0.015242696 0.0010156587 0.03625261 0.015739013 -0.004848085 0.06060209 0.020284252 0.023048872 0.010897771 -0.017806605 0.006371028 0.019922314 -0.009400272 0.0028892984 -0.042608246 -0.0059605427 0.061423454 -0.03338374 -0.009472957 -0.016360724 -0.005483154 0.0011864061 -0.00785988 0.04662019 -0.022771057 0.02505494 0.0446006 0.0130106155 -0.02790359 0.050485954 -0.017317882 -0.04891424 0.016983638 -0.0065174755 -0.012264345 0.024419516 0.043738402 0.0054373275 -0.045580737 -0.0050771283 -0.03719021 -0.035203718 0.03824488 0.036470212 0.03405827 0.015193025 0.016732953 0.003288272 -0.0030343377 -0.011272459 0.0012770642 0.012716871 -0.008730561 -0.028282685 0.006981647 -0.025401672 0.0035830436 0.00022557622 0.0137342345 -0.0041265506 0.00079843827 0.020049628 -0.013114672 0.046662606 -0.01800602 -0.010107635 -0.031825952 0.0065174843 0.00572198 0.008042394 -0.0108665535 -0.027140856
dbo:WrittenWork -0.010837263 -0.05310258 -0.0892063 -0.00048152928 -0.0243459 0.013624255 -0.15015587 -0.0071459664 -0.04762806 0.06975583 -0.045728922 -0.011333712 0.06387072 0.06528336 0.026747975 0.08535473 0.1644022 0.019585224 -0.080111265 0.03865259 0.09234683 -0.0763642 0.13310231 0.2590606 0.08775756 -0.09715689 -0.053193137 -0.06299693 0.039530084 0.017838817 0.018491479 -0.032901343 -0.05214142 0.20946267 0.11317313 0.12960683 -0.014384199 -0.11847756 0.21453375 0.0577177 0.0046853824 -0.012513794 -0.10560447 0.1036236 0.19762388 0.0038375019 0.019099144 -0.11451446 -0.109686986 0.021986721 0.067584746 0.14413448 -0.14570266 0.106584 0.18696687 0.09120167 -0.09538555 0.07935295 0.040662408 -0.13085282 -0.02905529 -0.07320541 0.0039892816 0.10178739 0.1199724 0.17314324 -0.17087112 -0.026364623 -0.15208955 -0.06445627 0.0836643 0.17136018 0.122436 0.0011804883 -0.06704272 0.091110036 -0.1449904 -0.14481603 0.020194054 0.08198524 -0.12642494 -0.2177286 0.07586258 -0.17881446 -0.037606806 -0.09097833 0.041367516 -0.008972319 0.05487101 -0.069082454 0.09356603 0.14646877 -0.024742205 -0.025174843 -0.08545554 -0.07929071 -0.039397866 0.074057296 -0.0049934303 -0.11426028
dbo:River -0.032128666 -0.26524356 0.20354354 -0.10490517 0.33548585 -0.08111763 0.14473608 0.48854068 0.2058658 0.03747289 0.0059696296 -0.04721653 0.14377949 0.23880783 -0.05274223 0.09289543 -0.036284957 0.100280404 0.043058626 -0.01136304 0.09688434 0.055640474 0.22272068 -0.055539712 0.17861578 0.5497962 -0.2875071 -0.17763577 0.14471634 -0.18126073 0.39992112 0.33622167 -0.19502284 0.058588903 -0.117480844 -0.011210149 0.12526836 0.2125324 -0.0039312067 -0.10013617 -0.21314391 0.023390606 -0.34678692 -0.32460085 0.21672012 -0.19081904 -0.030917043 -0.027558334 0.14432378 -0.05945768 -0.0753877 0.3652787 0.07988732 0.12909275 0.12740625 -0.09712675 -0.32905743 0.3322525 -0.35199097 -0.33531067 0.092187926 -0.0028157956 0.113210306 -0.12454114 0.35677165 -0.2972056 -0.1132902 0.2923042 -0.18534055 -0.3373576 0.29977047 -0.076224625 -0.012597328 0.112087205 0.35057464 -0.011509695 0.1487038 0.3590785 -0.17698537 -0.071928255 0.2422522 -0.030348357 0.3301186 -0.12805943 -0.0017186169 0.2721123 0.18594038 0.05995832 -0.38042718 0.2602633 -0.3164798 -0.027370406 -0.2595393 0.09740114 -0.2130064 0.25456455 0.101476125 -0.031176146 -0.18369108 -0.18432997
dbo:Taxon 0.018362097 -0.025469586 -0.04297077 0.013468196 0.019745657 -0.010322781 -0.081385285 0.00254858 -0.055683415 0.009276839 -0.03994187 -0.06697596 0.033030204 0.054927282 0.05013097 0.0108129475 0.060758658 -0.026406359 -0.08675624 -0.028807776 0.045284756 -0.044124484 0.13322423 0.07587709 0.015058274 -0.044734642 -0.03619065 -0.014097982 0.0359128 0.037057307 0.04156609 -0.008632785 0.028438926 0.15913658 0.037294004 -0.0057507143 0.0023300038 -0.06622218 0.048185416 0.058736075 -0.030585755 0.015382382 -0.1112117 0.07540581 0.13403259 -0.04349572 -0.018205969 -0.056285474 -0.0021529384 -0.013202988 -0.024654863 0.043343328 -0.09090374 0.06756056 0.1101026 0.008311392 0.0076754615 0.070779435 -0.017804898 -0.07366846 0.020765768 -0.044579457 0.018704256 0.03578634 0.06717148 0.019263295 -0.08296431 -0.03501338 -0.07206693 -0.038042627 0.013238166 0.08843775 0.062055215 -0.020977959 -0.015314004 0.025145853 -0.063543774 -0.074185185 -0.015796164 0.07926374 -0.032704066 -0.06910991 0.01038898 -0.07956504 -0.023012603 -0.024247212 0.040997572 -0.037328266 0.02975729 0.041250575 -0.028088672 0.07229416 -0.01839667 -0.04224727 -0.08870624 -0.0021416647 -0.006401575 0.003626565 -0.044615924 -0.043311253
dbo:Stream -0.017857835 -0.2732623 0.23137721 -0.12863828 0.31711736 -0.08765823 0.14736813 0.48216307 0.22126059 0.040394608 -0.019645212 -0.030197442 0.12067147 0.25861895 -0.03712008 0.12867512 -0.038810644 0.10989847 0.050048772 0.035998974 0.1329542 0.006129429 0.23723795 -0.08103672 0.15989839 0.53909844 -0.2653656 -0.18094273 0.15304662 -0.18989982 0.417353 0.37507308 -0.1921805 0.06971927 -0.07562867 -0.021136116 0.12405612 0.23419994 0.022908745 -0.08691398 -0.23718686 0.027937794 -0.3556769 -0.365275 0.22672895 -0.17660502 -0.06340267 -0.049775448 0.1540625 -0.06896134 -0.10868575 0.33897835 0.08419549 0.13969953 0.14954945 -0.0861248 -0.35778314 0.33261284 -0.36089167 -0.31856304 0.10635199 -0.02817924 0.13268232 -0.13026236 0.35147497 -0.2551717 -0.1432708 0.34260663 -0.17818283 -0.35942698 0.2696039 -0.08464259 -0.0033055672 0.11941233 0.34533164 -0.0014192773 0.17811704 0.36726612 -0.18540597 -0.10320809 0.26985836 -0.025359338 0.352711 -0.13060251 -0.00829019 0.29061097 0.18772706 0.061353754 -0.39289218 0.2521771 -0.31814623 -0.044137157 -0.27213663 0.1110924 -0.19528823 0.25744766 0.07502868 0.008911223 -0.15226373 -0.18562174
dbo:SportsTeam -0.019672643 -0.03876085 -0.05608025 0.033766676 -0.021918485 0.044941876 -0.25092402 -0.11234251 -0.11539325 0.09067119 -0.0060345284 -0.06363281 0.123441935 0.013003614 0.073975205 0.052805968 0.10354635 0.0210586 -0.13805111 0.05813822 0.070516065 -0.10849984 0.14333294 0.22022697 0.00085135724 -0.18594533 0.051967446 0.108552 -0.055938765 0.09784376 0.017312478 -0.017514855 0.091675125 0.29956686 0.08901298 0.012598578 0.050514296 -0.16522825 0.024090974 0.15954776 -0.046287615 0.07462842 -0.15520641 0.11944944 0.19803788 -0.030118085 -0.015177329 -0.13616647 -0.03692079 0.038939472 0.08343615 -0.011061476 -0.12556365 -0.008977351 0.20272401 0.17573321 -0.050195962 0.024565334 -0.0031639643 -0.07968735 0.023032239 -0.03270065 -0.09422041 0.09741706 0.16552418 0.12773655 -0.15317044 -0.14552286 -0.16367896 0.014523805 0.07690234 0.09600848 0.12782352 0.091130145 -0.019119628 0.030376274 -0.07271765 -0.08981835 0.051780798 0.026214639 -0.09530478 -0.060332786 -0.021854406 -0.026313089 0.027156042 -0.02376991 -0.049884915 -0.026581036 0.11435694 -0.0027968378 -0.0015063337 0.17332599 0.09686236 -0.10024066 -0.038838968 -0.05878888 -0.029305374 0.075850025 0.0104558235 -0.0843523
dbo:Event -0.1330007 -0.33352792 -0.10888977 0.09439138 0.12214239 0.039708514 -0.501024 0.25218633 -0.1291395 0.28851524 -0.10131197 -0.069975376 0.40943864 0.4293119 0.19565684 0.1663267 0.36700788 0.07801782 -0.34953174 -0.0957518 0.14284651 -0.0788607 0.5266017 0.40086383 0.20299979 0.00018665096 -0.33073425 -0.07294641 0.03959445 -0.0053124265 0.24419951 0.07019074 0.023218112 0.65924895 0.18705036 0.251208 0.084136344 -0.27255806 0.11348472 0.21092582 -0.041254032 0.04227571 -0.42300743 -0.033233162 0.6195761 -0.29021236 -0.0765956 -0.2298751 -0.088156864 0.034549654 0.02194826 0.37049547 -0.2661699 0.25273982 0.5412386 0.16894184 -0.18748258 0.4357217 -0.088492215 -0.4512171 0.14538006 -0.110443026 -0.15810019 0.29556122 0.40106675 0.08001805 -0.45137087 -0.08605915 -0.44244626 -0.3223932 0.37472296 0.41409326 0.36387467 0.09597782 0.040396497 0.11230462 0.0011375305 -0.15148477 0.077936985 0.09278367 -0.094482265 -0.2868345 0.038000494 -0.3045662 0.013339479 -0.07782274 0.16429272 0.038485076 0.022905152 0.16545816 -0.15639453 0.46913555 -0.0376018 -0.14674655 -0.33217895 0.082337715 0.05079756 0.13265003 -0.07088309 -0.20798928
dbo:MusicalWork -0.014029519 -0.056957636 -0.07979026 0.018428141 0.016512537 -0.0062227133 -0.15618071 0.0164753 -0.047718424 0.07635842 -0.032655824 -0.0043201544 0.098542795 0.1062444 0.07015139 0.07055194 0.14674555 0.023832249 -0.07234229 0.007297015 0.044063337 -0.069533035 0.13960941 0.18015897 0.051739216 -0.08372853 -0.036938094 -0.027186587 0.0011359277 0.0030371712 0.049015585 -0.0071260617 -0.0149843395 0.17810804 0.091265954 0.08413654 -0.001083729 -0.087990314 0.13665761 0.081857875 0.02487851 0.019019322 -0.10402535 0.06710769 0.1756029 -0.02526329 0.012570618 -0.07955397 -0.047799245 -0.007814498 0.023744082 0.11015794 -0.1299174 0.08184139 0.14872515 0.059194695 -0.07749945 0.124326386 -0.015332964 -0.12720668 0.009014817 -0.05882358 -0.022662329 0.07804025 0.09239147 0.089040056 -0.15049985 -0.05256768 -0.099136114 -0.06810601 0.0702609 0.14019555 0.09450635 0.044585858 -0.038298726 0.043769836 -0.07900445 -0.113344006 0.013309438 0.089564204 -0.09374885 -0.12970228 0.044806633 -0.12273706 0.0041899346 -0.059921145 0.05252137 0.010002193 0.050111767 0.0063204425 0.045903303 0.14375204 -0.022799473 -0.01304616 -0.10267107 -0.04591056 -0.04194553 0.05163749 -0.0039371317 -0.08500096
dbo:Disease -0.012479187 -0.052276727 -0.014097175 0.02205627 0.028943446 0.00016716315 -0.07452482 0.03527516 -0.01702374 0.03955418 -0.013409086 -0.01156801 0.061873402 0.065480694 0.027749494 0.036789924 0.047161307 0.0041606305 -0.039588425 -0.009162735 0.02155402 -0.009608617 0.088462226 0.056742657 0.031958688 0.012245872 -0.05682322 -0.009643668 0.013864107 0.0058740303 0.050543193 0.021649634 -0.0034782516 0.0966568 0.027412293 0.032715145 0.01546249 -0.034453176 0.022524303 0.025778934 -0.0055702524 -0.0015583092 -0.06491482 -0.0062636686 0.099579625 -0.045542292 -0.010777796 -0.030582143 -0.016250212 -4.343075e-05 -0.006880298 0.07013641 -0.04211459 0.046398077 0.072955556 0.023862679 -0.03644006 0.07565398 -0.021857208 -0.078963116 0.019776275 -0.008078728 -0.009821047 0.041537944 0.06780298 0.011055073 -0.076556645 -0.015466331 -0.06800866 -0.044199526 0.06193004 0.060833823 0.065134905 0.02937101 0.02979702 -0.002110336 -0.005618078 -0.012512136 0.0036798497 0.016737714 -0.012776333 -0.049441352 0.016425649 -0.04475382 0.0070808185 -0.005440228 0.02871265 0.0027867982 0.004629369 0.032544754 -0.02022828 0.07696343 -0.023797685 -0.016047247 -0.058330365 0.016157147 0.012130665 0.01503503 -0.019644067 -0.036188945
dbo:Infrastructure -0.05574866 -0.3797826 0.028119642 0.16824913 0.21662028 -0.018953977 -0.12353315 0.26758623 -0.005320744 0.12368925 -0.08684 0.0044256025 0.110853784 0.3853469 -0.04979861 0.09262417 0.043941174 0.051207513 0.004624232 -0.13894454 -0.07538454 0.009887861 0.20663202 -0.14172629 0.16376925 0.34850916 -0.3691188 -0.16405702 0.16676313 0.041316602 0.3208936 0.16658701 -0.078160755 0.042359885 -0.019259183 0.18819515 0.0860677 0.101289764 -0.08879861 0.0046200086 -0.012573693 -0.015300762 -0.14281386 -0.18843366 0.29559436 -0.2618895 0.039551347 0.11321769 0.0050799362 0.0077127717 -0.26168746 0.44981357 -0.011385406 0.21308461 0.082411356 -0.045840893 -0.049622796 0.41866875 -0.16700032 -0.29850823 0.115303524 0.13877922 0.07429788 0.07434817 0.028556753 -0.22042969 -0.10947114 0.109918535 -0.16320205 -0.17097962 0.26552647 0.08279225 0.2080526 -0.00081966375 0.31551617 -0.07389315 0.024198437 0.10560011 -0.009955379 -0.028999232 0.077588655 -0.0059775156 -0.012491883 -0.17669399 0.06821417 0.07946326 0.2049631 0.11782116 0.016130274 0.24492443 -0.06985476 0.09968776 -0.1043994 0.039014325 -0.2050146 0.17574118 0.24642923 -0.07961076 -0.23615302 -0.08805381
dbo:Book -0.018608928 -0.028235009 -0.10532984 -0.043244544 -0.025801629 -0.037694234 -0.12222201 0.0036746934 -0.041228697 0.08956618 -0.050803635 -0.02288298 0.078945704 0.07036312 0.043556113 0.050765697 0.18346073 0.033063855 -0.039295953 0.010143419 0.09833679 -0.109558225 0.14807335 0.23176861 0.023804624 -0.064971484 -0.0073204525 -0.028353317 0.023547845 0.008408646 0.024078768 0.020211477 -0.051945806 0.15913329 0.07721608 0.058752805 0.016697831 -0.083102755 0.1858594 0.06916872 0.009452554 0.0099051865 -0.10643567 0.1266174 0.14805503 0.007173021 0.03245499 -0.07181816 -0.05087553 0.0032080284 0.011889074 0.10102373 -0.1394614 0.07445303 0.13869447 0.08685602 -0.084908366 0.092880346 3.1403964e-05 -0.104505904 -0.025273327 -0.060522597 -0.02994622 0.05179772 0.16661331 0.14998753 -0.18364823 -0.03448836 -0.106165215 -0.065331325 0.069449306 0.1603038 0.09509574 0.018340774 -0.061002087 0.067763865 -0.11232913 -0.11503058 0.03037609 0.078901656 -0.10568628 -0.1921576 0.015189303 -0.1072196 -0.040638752 -0.08885864 0.05427237 0.0016003501 0.02595127 -0.014851418 0.06428233 0.15454993 0.028605817 -0.03795099 -0.091333315 -0.07421164 -0.0020361112 0.052520245 0.005071141 -0.067195736
dbo:Band -0.022265404 -0.029928051 -0.06342751 0.05715754 -0.00823868 0.06371257 -0.18278062 -0.06814373 -0.1108552 0.12076834 0.007862324 -0.06333161 0.09325583 -0.013030105 0.06450708 0.05289412 0.12048555 0.013652973 -0.10348374 0.020886548 0.028743144 -0.08012558 0.121309526 0.17303157 0.004516952 -0.12808046 0.020392599 0.085269235 -0.05161127 0.049606886 0.019098751 0.022977483 0.09769094 0.26604226 0.073053285 0.040675886 0.05558787 -0.16132908 0.0059705744 0.123521395 0.014465718 0.015587637 -0.15155633 0.11046474 0.14501269 -0.053888224 -0.006579723 -0.12448651 -0.04857667 0.049884975 0.049193963 0.017807923 -0.12717909 0.013170547 0.1275492 0.1403258 -0.02001087 0.004130637 0.013291065 -0.084419936 0.018924056 -0.022724036 -0.070044026 0.07360388 0.13541788 0.12598719 -0.16362374 -0.12665363 -0.12949899 -0.013217672 0.10865199 0.0983206 0.12434742 0.091868155 -0.021021502 0.019649668 -0.07678419 -0.09461892 0.06126709 0.0035835004 -0.03705456 -0.03246116 -0.053074885 -0.039986562 0.013151763 -0.016403234 -0.038467377 -0.03181809 0.12811302 -0.0066691265 -0.026681926 0.15876386 0.025428953 -0.10154621 -0.029897884 -0.03353056 -0.0346954 0.05461243 -0.02564589 -0.039239626
dbo:Building -0.04488919 -0.2922537 0.018669164 0.13921654 0.1743976 0.005784274 -0.11188977 0.2238157 -0.01669971 0.088955745 -0.06946997 -0.016299732 0.104615845 0.312041 -0.019623479 0.082587846 0.032908056 0.016236173 0.010063505 -0.112491205 -0.035958137 0.026930265 0.18687898 -0.08592549 0.13706072 0.2937631 -0.31323296 -0.13454498 0.12524034 0.013264507 0.27179265 0.11049721 -0.06552898 0.060953233 -0.011439587 0.16032405 0.06426934 0.06600349 -0.045364626 -0.006656048 -0.024733983 -0.017209552 -0.10610726 -0.18121916 0.2456114 -0.21333134 0.0039997967 0.08731226 -0.0058627846 -0.03354444 -0.20046923 0.3516735 -0.007875918 0.1737734 0.103904985 -0.020871222 -0.041995797 0.34629053 -0.1415584 -0.2526451 0.09326811 0.112192206 0.04331883 0.09678567 0.0338476 -0.17914921 -0.10890714 0.1080315 -0.13240248 -0.18463187 0.20052831 0.04699321 0.16649877 0.008923809 0.26710176 -0.049798273 0.021387057 0.09601183 -0.0150783155 -0.018134579 0.06785184 -0.012552905 0.04400113 -0.11574401 0.07218076 0.06937456 0.16058266 0.06956139 0.0012461792 0.210258 -0.056971215 0.093618825 -0.12986498 0.013405273 -0.18880272 0.14823948 0.18345505 -0.04369035 -0.17708585 -0.08125379
dbo:PersonFunction 0.029772732 -0.07274426 -0.04038019 0.057077672 0.017588066 0.0424769 -0.10182689 0.0918554 0.026052544 0.07352111 -0.034594852 -0.07207338 0.16749065 0.13642348 0.0046371897 0.024934057 0.08518874 0.0073995534 -0.12463534 0.020845903 -0.009939609 0.01515026 0.13574745 0.14567757 0.0088127 -0.052520953 -0.11066942 0.054761916 -0.040774953 -0.059157085 -0.0032372507 0.07076691 0.007843341 0.19751829 0.11565628 0.07459781 0.060425296 -0.09278803 0.06749134 0.005154773 -0.07799248 0.008434083 -0.093838744 0.08962858 0.11477703 -0.08101639 0.0007342738 -0.04054514 -0.028853986 -0.060700208 0.062355086 0.15911828 -0.012236301 0.019472884 0.07955703 0.098366484 -0.043096412 0.1848322 -0.091881715 -0.14729026 0.05828836 -0.074133925 0.0070014913 0.14716767 0.057500083 -0.01650284 -0.19685209 -0.08079277 -0.050605256 -0.15145297 0.109211646 0.118170306 0.09386844 0.014213059 0.038494296 -0.058604818 -0.037999842 -0.063476525 -0.051432483 0.060011268 0.01600398 -0.034703143 -0.0060605663 -0.06616754 0.06296794 -0.052924756 -0.048527144 -0.008771658 0.114400364 0.06933915 -0.06604932 0.12576029 -0.09022306 -0.1055378 -0.1581926 0.08624667 -0.017802099 0.009831926 -0.035475444 -0.079769
dbo:Profession -0.10085058 -0.08169262 0.007547075 0.079336695 -0.009281225 0.03868247 -0.21098821 -0.009201468 0.029990664 0.08184764 0.008230227 -0.010196827 0.068473995 0.12178459 0.013733776 0.06924432 -0.0011382569 -0.073957406 -0.06005945 0.017831916 0.091984086 -0.03826136 0.23567626 0.1379635 -0.011406355 -0.08713632 -0.07394631 0.016756414 0.10156702 -0.040234074 0.048220634 0.04003035 -0.07537344 0.2995422 -0.014728923 -0.029189691 0.070213445 -0.027750062 -0.0040979 0.041826583 0.03742716 -0.062399276 -0.13033228 -0.015415807 0.17672546 -0.11232385 -0.07924827 -0.0186089 0.006734793 0.06621321 0.024760846 0.13329247 -0.072933495 0.06304512 0.12265968 0.13419275 0.037465956 0.06634529 0.024960715 -0.06421057 0.06504655 -0.08295406 -0.046026144 0.11301387 0.15889962 -0.009345648 -0.097948425 -0.102311924 -0.060968786 -0.044252217 0.017368292 0.083536424 0.094770394 0.1040253 0.04026523 -0.024345726 -0.049237516 -0.12892044 0.01643804 0.053939506 0.008127048 -0.14074297 0.03366441 -0.023947956 -0.011966676 -0.06799882 0.0026458767 -0.06943636 0.029398698 0.062423505 -0.07650587 0.1695899 -0.041115247 -0.112126924 -0.02756765 -0.024714075 0.069904536 0.11918603 0.0065654684 -0.12621279
dbo:Artist 0.0010935864 -0.03871781 -0.03677768 0.027837774 0.012179275 0.038685452 -0.16813749 -0.04080099 -0.041088838 0.09352693 0.01703525 0.007199579 0.10163244 0.04772404 0.07394084 0.04297135 0.103775434 -0.008994975 -0.103310004 0.019765062 0.018470176 -0.038407054 0.1614308 0.1607511 -0.015828166 -0.13448249 -0.019624066 0.053186916 -0.047138803 0.06133945 0.03288846 0.020955378 0.07309192 0.24379453 0.115957916 0.04022888 0.011820315 -0.12904003 0.04552689 0.086580664 0.022746561 -0.008549717 -0.10733406 0.09835716 0.17974819 -0.07374236 0.004221272 -0.08201734 -0.024125721 0.028374355 0.07900724 0.0056514274 -0.10233368 0.011652673 0.14409485 0.1075482 -0.023051195 0.06807121 -0.028254252 -0.08409302 -0.02650832 -0.017994033 -0.06939232 0.1152693 0.11787578 0.11291655 -0.15567295 -0.087519266 -0.088655226 -0.05683907 0.08627719 0.104101546 0.12665255 0.10279026 -0.03224418 0.03529969 -0.014183931 -0.07812741 0.06525485 0.0611117 -0.024968036 -0.093719006 -0.017065631 -0.060696725 0.015098138 -0.042805467 -0.02341541 -0.04493442 0.09677737 0.017660925 0.010345064 0.128595 0.005871162 -0.07220659 -0.051962174 -0.039593644 -0.023638552 0.0829008 -0.008373735 -0.06953652
dbo:SocietalEvent -0.14987954 -0.25920486 -0.11781239 0.055285834 0.07383098 0.0061907466 -0.4518703 0.21930477 -0.13110372 0.25390017 -0.07539412 -0.10320204 0.42218372 0.39007035 0.14044835 0.18103312 0.39231828 0.046218067 -0.31915778 -0.109678484 0.16812047 -0.09945264 0.5394803 0.36530158 0.14966366 -0.022299832 -0.25368053 -0.062469997 0.040837858 -0.019974288 0.188914 0.022605523 0.010409211 0.69226825 0.24252407 0.21057464 0.08796768 -0.23799333 0.17030758 0.24827573 -0.037553243 0.06942144 -0.42138508 0.061877977 0.5674782 -0.2612924 -0.07247605 -0.20537412 -0.116439514 0.048576448 -0.015266938 0.30732793 -0.32098737 0.27504906 0.5134797 0.1867692 -0.1388214 0.3643267 -0.06665022 -0.4019259 0.14196976 -0.111313164 -0.17591658 0.2221225 0.41715235 0.0987577 -0.48718202 -0.06324754 -0.43265635 -0.28724536 0.332406 0.4338073 0.32187715 0.07832805 -0.020020092 0.14965208 -0.00970541 -0.15639506 0.106505685 0.12582956 -0.101405546 -0.33558315 -0.0142740905 -0.3499726 0.020005805 -0.1122502 0.1499382 0.033765733 0.003469177 0.14079428 -0.17675512 0.48545492 0.020936351 -0.12545083 -0.33578032 0.03360745 0.02491288 0.16437016 -0.0798591 -0.22707042
dbo:Software -0.020799128 -0.068179145 -0.0521285 0.022893658 0.014493013 0.0025848194 -0.12408902 0.0363731 -0.048552047 0.05752858 -0.019041333 -0.022466892 0.077725045 0.09676508 0.0398832 0.0653482 0.101617716 0.009736207 -0.067533255 -0.0032614183 0.039473865 -0.04732935 0.12849197 0.13797995 0.032837424 -0.04187651 -0.033535484 -0.016612548 0.012244791 0.0063002016 0.049391624 0.004214398 -0.009608759 0.14950131 0.062678434 0.07455051 0.0027585067 -0.068806514 0.093608 0.06521565 -0.003105381 0.004560592 -0.099410266 0.03570804 0.15413615 -0.045786344 0.0037309604 -0.061912708 -0.042627055 0.00031388397 0.018506069 0.09511345 -0.078625925 0.07663964 0.12921196 0.047584515 -0.051484033 0.098769195 -0.019950924 -0.11560529 0.008672344 -0.023882689 -0.014726489 0.06060478 0.09037967 0.05197911 -0.1329342 -0.038723215 -0.09421283 -0.07321005 0.069670886 0.10344535 0.0935794 0.029384628 -0.011808818 0.036195885 -0.045131445 -0.06665461 0.005432766 0.0569915 -0.0653065 -0.09397394 0.03127405 -0.09595987 -0.0037920878 -0.040172994 0.04572794 -0.0013504352 0.035218693 0.008015418 0.019127265 0.112886414 -0.01030527 -0.019760098 -0.076168165 -0.024866706 -0.016701808 0.03587622 -0.011803515 -0.070991285
dbo:PoliticalParty -0.014675537 -0.049276296 -0.02274652 0.018229919 0.01111761 0.009574559 -0.13528953 -0.00985506 -0.046820924 0.06474149 -0.006065456 -0.03056018 0.06959443 0.04918043 0.036135674 0.038446803 0.06232446 0.012305731 -0.07545161 0.008726748 0.036153562 -0.04915407 0.095637076 0.105123475 0.01449362 -0.0484349 -0.01467636 0.030321674 -0.006387871 0.026632113 0.030343868 0.01627809 0.029081348 0.15741222 0.047270607 0.02733145 0.026939826 -0.07462961 0.022335911 0.06804039 -0.016080607 0.01710164 -0.09195454 0.0448769 0.13260984 -0.034487873 -0.007812193 -0.06520635 -0.012730406 0.020668773 0.028387142 0.037347708 -0.059219208 0.032655798 0.10348785 0.06711622 -0.040869314 0.061094787 -0.01552684 -0.07576642 0.017822152 -0.020957462 -0.03666995 0.06093108 0.10080157 0.04253686 -0.09795357 -0.056506347 -0.09019394 -0.029645726 0.068165906 0.07288347 0.08026156 0.050915383 0.010687327 0.011586981 -0.02790711 -0.033687927 0.02105918 0.015692525 -0.030410873 -0.047461525 0.0013635547 -0.0327679 0.0094962185 -0.017469028 -3.984326e-05 -0.012553493 0.040991098 0.018292736 -0.011527074 0.10067811 0.0182064 -0.048692573 -0.047968492 -0.009323079 -0.0012976702 0.033715613 -0.007301764 -0.056581803
dbo:Athlete -0.05478539 -0.22799928 -0.06510599 0.07487557 0.12585376 0.012897837 -0.3299009 0.15942858 -0.07650366 0.171044 -0.06697341 -0.049752906 0.24695918 0.28404096 0.13248505 0.13318175 0.19198075 0.025106505 -0.16311869 -0.030485844 0.08613156 -0.045267086 0.34507883 0.24659014 0.12581646 0.048377585 -0.21424375 -0.043944497 0.07688715 0.01002771 0.22152756 0.07942546 -0.022542838 0.44395944 0.12049341 0.14884776 0.053673 -0.17946751 0.08436055 0.1459122 -0.037530623 0.021566948 -0.26441193 -0.024451159 0.43720663 -0.16998102 -0.048687246 -0.12650016 -0.041786574 0.0029281683 -0.007986154 0.27502418 -0.15063187 0.17669897 0.28612703 0.11428075 -0.16519089 0.2938737 -0.12451913 -0.32864612 0.091556765 -0.05025612 -0.06659752 0.19614792 0.30090883 0.040633745 -0.3184645 -0.09185474 -0.27040917 -0.19227216 0.242872 0.24767971 0.25692192 0.10943008 0.09540638 -0.0052500134 -0.018838823 -0.038850825 0.017709881 0.053548086 -0.060754977 -0.18317033 0.07384787 -0.18910591 0.029582778 -0.028307298 0.103493996 -0.01470933 0.04146668 0.11432691 -0.10927182 0.30297166 -0.07392614 -0.10040312 -0.21435711 0.040473033 0.044183023 0.082934454 -0.081905216 -0.17062825
dbo:MusicalArtist -0.017411236 -0.015313277 -0.06910095 0.052185737 0.0317848 0.022317318 -0.21593569 0.0067320964 -0.053276382 0.118676454 -0.005885996 -0.034164246 0.08265128 0.05592128 0.10536328 0.063241996 0.11613596 -0.0043144664 -0.13228914 -0.012192062 0.0625894 -0.036125787 0.14793164 0.14727132 -0.0020146505 -0.14266126 -0.060404576 0.04159098 -0.020800635 0.042852554 0.009572517 0.032671526 0.05686994 0.22803 0.10602939 0.03431345 0.00731379 -0.119035974 0.033883967 0.11106647 -0.0041910405 -0.014634418 -0.113848045 0.08894481 0.21179716 -0.077888176 -0.024411958 -0.09013095 -0.037859816 0.025555298 0.022434898 0.07716512 -0.13581528 0.037865244 0.143725 0.07526683 -0.052380107 0.0473858 -0.0089939125 -0.102658905 -0.018605355 -0.00852296 -0.0618845 0.10504251 0.11882202 0.10130839 -0.16882615 -0.10532089 -0.10043095 -0.07288189 0.09852263 0.13132195 0.1654785 0.078680106 -0.019537944 0.009092786 -0.033504635 -0.07404755 0.047183957 0.06258419 -0.07407515 -0.10575183 -0.024666132 -0.072680876 0.018016955 -0.06844637 -0.016743708 -0.045521278 0.102285594 0.03209797 -0.03099096 0.13575552 -0.03240597 -0.047143176 -0.09497347 -0.03218286 -0.041294523 0.07786615 -0.017520716 -0.07716732
dbo:Name -0.014933782 -0.108659364 -0.03806928 0.01876392 0.08110247 -0.0005218186 -0.14125156 0.020048218 -0.037302785 0.061918616 -0.058978554 -0.0180595 0.08294645 0.1479643 0.07439691 0.07323906 0.08678169 0.007711761 -0.10332144 0.023400415 0.06419494 -0.023381352 0.1546714 0.14063121 0.07689413 0.031908944 -0.09761132 -0.042974263 0.00976769 -0.023054281 0.059128113 0.02397651 -0.00565048 0.22205886 0.052157238 0.04370021 -0.0029017674 -0.11865144 0.067221224 0.08930649 -0.0021909236 0.0056610275 -0.15705581 -0.0015593723 0.1914425 -0.10408416 -0.01433364 -0.04518744 -0.037090123 -0.0060761687 -0.011264339 0.13080929 -0.09794284 0.087436914 0.119897105 0.09538256 -0.05258637 0.13120379 -0.060371187 -0.17752755 0.03739526 -0.014137454 -0.012760822 0.06313771 0.14098182 0.030073136 -0.16949116 -0.024397431 -0.1537935 -0.097673945 0.09489456 0.14428027 0.09516494 0.055269796 0.044347823 -0.023904935 -0.014339109 -0.039160013 -0.008716712 0.060310997 -0.038979955 -0.071776085 -0.002038705 -0.11256556 -0.0039774105 -0.009842105 0.06286145 -0.015715744 -0.0021110433 0.029841613 -0.056632206 0.17201507 -0.0537918 -0.014201759 -0.1089244 0.05155699 0.0048463442 0.03832324 -0.01702818 -0.058641486
dbo:CelestialBody -0.04473574 -0.15393105 0.0076695792 0.041958738 0.096080184 -0.034246054 -0.06810215 0.15574695 -0.016849417 0.060864583 -0.034079596 -0.021602433 0.09082139 0.19668965 0.027005093 0.041683413 0.017753968 0.013378907 -0.01466683 -0.049654882 0.03250295 0.034867126 0.111673795 -0.0066084405 0.09718403 0.17302704 -0.1905878 -0.078546464 0.06385814 -0.0346294 0.17116614 0.08079473 -0.06025643 0.08041216 -0.0049608275 0.0777586 0.009579674 -0.0144598605 -0.015239851 -0.016620087 -0.019976122 0.0030245946 -0.08528207 -0.14307852 0.1714618 -0.10810078 -0.016755987 0.016760187 -0.007062176 -0.051965907 -0.06713932 0.19951409 -0.007376871 0.095598534 0.10226557 0.004349673 -0.072359286 0.17111178 -0.08800042 -0.19199616 0.045923818 0.035779767 0.0049864575 0.058135867 0.08440184 -0.090019196 -0.08577736 0.0502267 -0.08748777 -0.14791459 0.14117242 0.06020335 0.07620997 0.026445191 0.12232609 -0.03288626 0.027662817 0.070161164 -0.030279523 0.019327406 0.02080932 -0.06647168 0.058035612 -0.097943395 0.038925447 0.0451835 0.07841244 0.029526906 -0.05563583 0.10344238 -0.094112016 0.082604215 -0.07829091 0.011695709 -0.11969728 0.09604976 0.088424206 -0.022600852 -0.1020793 -0.056964457
dbo:Biomolecule -0.04130625 -0.12570004 -0.030747658 0.06156521 0.033051576 -0.0071223723 -0.15789475 0.06516946 -0.05473523 0.07122659 -0.05693419 -0.02364991 0.11917749 0.17199335 0.045697656 0.07989614 0.07168826 0.029684298 -0.11759256 -0.024384258 0.053220235 -0.014224355 0.19947533 0.14440233 0.07461856 -0.009266532 -0.093422525 -0.024526166 0.059919007 0.032464705 0.112417474 0.027172204 -0.018555325 0.21105921 0.09568195 0.09006327 0.004463717 -0.09571514 0.05190991 0.06386891 -0.020444883 -0.023623174 -0.121190816 0.0017687164 0.20969723 -0.119265564 -0.052056663 -0.09383965 -0.021595614 -0.029905237 0.004172303 0.14853686 -0.05649349 0.124733806 0.19179645 0.055077083 -0.09015491 0.18655494 -0.026056137 -0.15726164 0.02240685 -0.024488859 -0.045875873 0.13975058 0.19187701 -6.0414768e-05 -0.15954605 -0.044862036 -0.14456324 -0.13429172 0.14288709 0.11745807 0.15051875 0.07857791 0.039638035 -0.027977008 0.0058599995 -0.024400115 -0.012513832 0.062940665 -0.01756717 -0.12874438 0.056887772 -0.11922086 0.036251627 -0.0038043852 0.033706326 -0.0052153124 0.012129486 0.035585813 -0.052621737 0.20809357 -0.046520405 -0.075267375 -0.0948766 0.022640808 -0.0055597327 0.014680834 -0.024174416 -0.08118153
dbo:Group 0.0067807846 -0.019133942 -0.045725625 -0.0049512223 -0.042483337 0.017789109 -0.24160217 -0.0931064 -0.092555076 0.102416106 0.03712833 -0.042769037 0.063969135 0.02522482 0.032375935 0.04227392 0.058191713 -0.005483133 -0.1015443 0.019108783 0.051907152 -0.09457402 0.10528885 0.18009748 -0.024299135 -0.18433666 0.04287466 0.12186768 -0.022537038 0.09820263 0.008662059 0.015476507 0.10122045 0.2752354 0.10485466 -0.0071952683 0.040263273 -0.15369554 0.013493114 0.14809865 -0.019111648 0.014831021 -0.16716965 0.13045779 0.18907286 -0.029714083 -0.041718815 -0.10279594 -0.04187067 0.054631826 0.07242627 -0.03164655 -0.06558646 -0.037978135 0.1734418 0.16203557 -0.040915534 0.009114801 0.016176162 -0.112021126 -0.007134514 -0.027257636 -0.10154722 0.10592051 0.14945891 0.11113868 -0.15246637 -0.166897 -0.13560918 0.028384684 0.05037091 0.10069399 0.08040656 0.11799601 -0.0029854598 0.07063197 -0.05906662 -0.06479682 0.068496086 0.041545007 -0.096520804 -0.051561095 -0.047678087 0.0068788975 0.028906139 -0.015598669 -0.06773734 -0.03092829 0.14839172 -0.030437259 0.04499384 0.15462968 0.08399877 -0.12072733 -0.010580767 -0.03111097 -0.031747676 0.06085442 -0.006113471 -0.08794082
dbo:Species -0.14059898 -0.40423056 -0.120098375 0.16706386 0.25928333 0.016677232 -0.6330911 0.30108985 -0.20411922 0.36525086 -0.1371076 -0.1054159 0.5104676 0.6142818 0.2630675 0.31089076 0.31776354 0.06286729 -0.41220313 -0.09080858 0.16487546 -0.102042705 0.7447893 0.5127153 0.31233627 0.113051675 -0.44451785 -0.14409576 0.18533579 -0.0014500753 0.46532848 0.13083774 -0.035565507 0.8675392 0.20580593 0.26180968 0.12832892 -0.36234948 0.16215785 0.25569353 -0.107468076 0.019821469 -0.5398784 -0.09164933 0.8631042 -0.36292017 -0.100555204 -0.24126557 -0.13314183 -0.002131692 -0.043976557 0.55319643 -0.36306626 0.42468208 0.6123159 0.2336404 -0.31718332 0.6324309 -0.21861777 -0.71827954 0.21427272 -0.03965786 -0.10641783 0.36236626 0.5835491 0.0734075 -0.65481395 -0.1775721 -0.55375147 -0.41405264 0.5012527 0.5178054 0.51467544 0.21824369 0.24343789 -0.015169319 -0.010647391 -0.13289224 0.05817651 0.14048056 -0.11892424 -0.37398553 0.17355607 -0.34217104 0.10614812 -0.057778977 0.22917931 -0.03404181 0.019673223 0.25806746 -0.15563418 0.63855934 -0.21150956 -0.16824476 -0.46675014 0.10304337 0.07682009 0.13207081 -0.1654136 -0.34199828
dbo:GivenName -0.051277824 -0.03853058 -0.023219777 0.0405386 0.06851458 -0.015344099 -0.14767656 0.0427163 -0.053674784 0.056886896 0.00053927535 -0.035977624 0.05120733 0.1142094 0.057521403 0.041456174 0.09837544 0.01303437 -0.07116901 0.03042849 0.03550531 -0.017395826 0.13563426 0.13016006 0.057504788 -0.0529469 -0.063473314 -0.0060638534 -0.0055111367 0.0044049653 0.02186689 0.029005157 0.03151681 0.19749463 0.076614626 0.090765186 0.034808777 -0.09238047 0.007469581 0.093335345 -0.035526 -0.030254267 -0.117891744 0.016991273 0.12395748 -0.036263004 -0.02272836 -0.04072992 -0.014374733 -0.01945142 0.048238516 0.06786752 -0.10020849 0.037260722 0.14921942 0.037890453 -0.05380597 0.09990327 0.0003749586 -0.08667144 0.032579463 0.0013707031 -0.04307711 0.09539133 0.1127758 0.034144595 -0.12182118 -0.054949816 -0.09590657 -0.034386173 0.065099955 0.09960746 0.09282061 0.03895293 0.006669889 -0.003077428 -0.038430236 -0.06648656 0.04920674 0.0475245 -0.030447623 -0.0732274 0.03428754 -0.089223355 -0.010925246 -0.049004607 0.044830278 0.0119933365 0.061885513 -0.0051490096 -0.0028388537 0.15063599 0.0085054645 -0.024715738 -0.076567076 -0.03402222 0.024350641 0.042117946 0.017544456 -0.07914032
dbo:Eukaryote -0.12968086 -0.40630272 -0.15454558 0.19310063 0.2639143 0.021545561 -0.68227494 0.30108136 -0.23521872 0.4016969 -0.12899356 -0.11310357 0.5500346 0.6516544 0.30429804 0.332179 0.33080223 0.04804675 -0.44781873 -0.07798877 0.18337089 -0.10660535 0.75696373 0.5567465 0.33738598 0.12493441 -0.48382992 -0.14474186 0.18652363 0.014477474 0.47799295 0.14288528 -0.059289012 0.8901583 0.22376134 0.26687962 0.15422803 -0.386503 0.15659213 0.25996608 -0.11639192 0.0042634024 -0.572874 -0.09237183 0.92135334 -0.393026 -0.12453996 -0.25523543 -0.14577079 -0.0038442458 -0.047125384 0.55076855 -0.38735852 0.44788358 0.6482908 0.23074685 -0.33236545 0.646937 -0.22453189 -0.76268554 0.23138838 -0.038849305 -0.12931065 0.36863908 0.6156748 0.08365743 -0.6641073 -0.2116785 -0.57124466 -0.4271903 0.49949998 0.5513942 0.53877544 0.21045807 0.24378814 0.0078829555 -0.011031415 -0.13337728 0.069796406 0.15782715 -0.12649672 -0.40393642 0.16884163 -0.36082977 0.10471051 -0.06084663 0.24383307 -0.046143908 0.017446216 0.2394428 -0.1668567 0.6583749 -0.23991667 -0.18772393 -0.46065876 0.08434336 0.084065355 0.14264792 -0.1656478 -0.35041693
dbo:AcademicSubject 0.0021095676 -0.038500138 -0.032482732 0.009480464 0.023094041 -0.008268715 -0.07924007 0.016099952 -0.044388838 0.022914335 -0.022545472 -0.046363935 0.04387555 0.06336877 0.04593597 0.018205784 0.053377304 -0.0110153565 -0.069315605 -0.021311967 0.04061104 -0.033950053 0.11105788 0.075018175 0.01996411 -0.017682157 -0.04450417 -0.015806874 0.022228895 0.025108323 0.04530667 0.0007727634 0.021349113 0.13749175 0.031409714 0.008207226 0.014394573 -0.056324106 0.033154648 0.053399067 -0.026694996 0.016244067 -0.1014517 0.0441287 0.12032712 -0.04411562 -0.010648983 -0.05022311 -0.009403714 -0.0068660183 -0.019354224 0.048410125 -0.07128186 0.054366168 0.10199145 0.012961502 -0.009400887 0.075595304 -0.02695063 -0.078797534 0.018802416 -0.03118117 0.0067072026 0.03647649 0.074656345 0.015154185 -0.07839276 -0.027644765 -0.07797728 -0.044051193 0.03292219 0.0742267 0.056571804 -0.0059337867 -0.006156884 0.017754853 -0.038431033 -0.048267893 -0.0027030348 0.053836714 -0.024171045 -0.06270203 0.006061012 -0.0681551 -0.012796682 -0.016312987 0.036679562 -0.022966536 0.017973337 0.035165865 -0.02067348 0.07391558 -0.015349477 -0.034732096 -0.07801883 0.005281296 0.008167298 0.007859147 -0.03622171 -0.045455348
dbo:RouteOfTransportation -0.05547322 -0.3773902 0.04386644 0.15487652 0.19813503 -0.010830463 -0.17154057 0.25869453 -0.03678193 0.16604245 -0.10431012 0.007544968 0.15538517 0.35628587 -0.021972839 0.08504411 0.07495835 0.036153436 -0.050579417 -0.1220663 -0.06435735 -0.036185022 0.2801869 -0.078295454 0.17377165 0.26747468 -0.33677247 -0.17610376 0.14383887 0.037081473 0.3095061 0.16311482 -0.10127173 0.116253555 0.014445222 0.19055437 0.09101926 0.06576182 -0.015824743 0.0043506925 -0.017636314 -0.01651521 -0.20139167 -0.15146282 0.3391377 -0.27318424 0.014325486 0.06389779 -0.0027959733 0.020058094 -0.19614366 0.45206395 -0.04402018 0.21834683 0.15821885 -0.004829989 -0.086224526 0.43858704 -0.15183078 -0.30885467 0.11635688 0.09652258 0.043856755 0.12902756 0.07973287 -0.13301156 -0.12844822 0.03078097 -0.1834581 -0.15992351 0.28167835 0.13660237 0.22758703 0.036537442 0.27927318 -0.04606766 0.052515943 0.09151717 -0.009063708 -0.016633473 0.028190305 -0.050820723 0.00343891 -0.19500032 0.08030107 0.054391563 0.205375 0.08654148 0.036263436 0.26706105 -0.10378122 0.14449283 -0.10624238 0.01434846 -0.2267094 0.15807225 0.21111616 -0.07302737 -0.20354898 -0.0724811
dbo:Animal -0.12764387 -0.40357572 -0.13368432 0.17814367 0.2646296 0.014834646 -0.64232475 0.3148116 -0.2230518 0.37749836 -0.12697878 -0.10268488 0.5329606 0.63056546 0.27757657 0.30854887 0.332647 0.06419755 -0.41891357 -0.07810569 0.16910608 -0.096055426 0.758188 0.5272001 0.32634437 0.12739454 -0.45078447 -0.15265754 0.17969157 0.0063632536 0.47619978 0.13164702 -0.051250365 0.8678279 0.20558105 0.25998032 0.14261964 -0.3607882 0.16558978 0.25293165 -0.100975655 0.0038384527 -0.5505605 -0.08439502 0.8925933 -0.3781091 -0.10686832 -0.24112558 -0.14085527 0.0070355153 -0.05535194 0.5528409 -0.36693937 0.43345898 0.64370835 0.23151445 -0.3121899 0.6534621 -0.22507203 -0.7211649 0.22339481 -0.04656577 -0.10496453 0.37223065 0.61105794 0.08157603 -0.6640875 -0.17790219 -0.56158864 -0.41127768 0.507563 0.5225651 0.5374072 0.21482904 0.241177 -0.015841126 -0.007988447 -0.1393392 0.05617421 0.14863956 -0.12470583 -0.3884075 0.16868389 -0.35454276 0.096389964 -0.053311907 0.24222055 -0.047004856 0.028823819 0.25616607 -0.16265242 0.64897466 -0.22312716 -0.18406874 -0.46380264 0.107576266 0.088600464 0.14690153 -0.16553092 -0.34483683
dbo:SoccerClub -0.013784129 -0.07780006 -0.049677607 0.037172813 0.0150573375 0.023523549 -0.2519405 -0.055967387 -0.11729455 0.09962596 -0.017772097 -0.036879703 0.13327879 0.06439898 0.068393365 0.065759264 0.10885585 -0.0007968762 -0.12870783 0.04051156 0.06457556 -0.07425646 0.16108263 0.2029225 0.019672712 -0.10204444 -0.026685677 0.054708708 -0.032614544 0.05881583 0.04903524 0.013123387 0.07251544 0.2762316 0.09556336 0.032997686 0.049124938 -0.12515615 0.028153602 0.1299796 -0.025532568 0.057123844 -0.14436132 0.07283464 0.20320556 -0.0702128 -0.022213466 -0.12077137 -0.029180225 0.012768328 0.046995167 0.05267881 -0.11167834 0.040862054 0.19300273 0.14267136 -0.06885366 0.07355408 -0.04621558 -0.12165167 0.049214732 -0.040280562 -0.06873947 0.10069945 0.16070297 0.09531452 -0.14401853 -0.114094555 -0.14879802 -0.02252648 0.1078667 0.10786793 0.15442091 0.074462496 0.002889572 0.015552422 -0.059066188 -0.06763269 0.036691155 0.03820072 -0.075979784 -0.0833584 -0.010175577 -0.04736401 0.036498707 -0.022504084 0.0023157583 -0.038522206 0.0873716 0.017807502 -0.003748813 0.157387 0.05746886 -0.07254904 -0.07349142 -0.039729357 0.009799607 0.046037417 -0.005420846 -0.07509441
dbo:PeriodicalLiterature -0.02931366 -0.057029724 -0.106536984 -0.029343357 -0.0044523757 -0.020689258 -0.14694467 0.018486116 -0.033750582 0.10391524 -0.057503466 -0.03901765 0.10620976 0.08808867 0.058372587 0.05842137 0.17291851 0.04144285 -0.059736896 0.023781037 0.11459223 -0.105221 0.17938036 0.24457036 0.044094194 -0.050749317 -0.05654911 -0.033709653 0.031896297 0.020435523 0.038069203 0.040096942 -0.047672156 0.19973288 0.07159931 0.07699936 0.019146254 -0.11018797 0.18165062 0.068200216 0.008603057 -0.00070960715 -0.14949444 0.099282846 0.18435664 -0.015513797 0.017169014 -0.08826558 -0.059236936 -0.0040627355 0.018395668 0.13004051 -0.13248502 0.09681847 0.15236872 0.10138396 -0.10477881 0.12500812 -0.013002587 -0.13523373 -0.004537565 -0.07520268 -0.037389424 0.06918014 0.19793911 0.13701485 -0.2160745 -0.05199826 -0.12716639 -0.095708475 0.103661306 0.17023847 0.11122054 0.018685557 -0.030574791 0.051728833 -0.10680654 -0.107160315 0.015395143 0.063876234 -0.1009761 -0.2039198 0.022998413 -0.12578626 -0.022059152 -0.08906421 0.066458784 0.007395528 0.035153743 -0.0021664903 0.039440513 0.19066155 0.016220035 -0.06196828 -0.11871841 -0.06568805 0.014074766 0.05156866 -0.0046411827 -0.07916093
dbo:Sport -0.024036001 -0.0930998 -0.016900815 0.047092065 0.023663541 -0.0034407715 -0.14612989 0.033295136 -0.028320387 0.06283501 -0.03572588 -0.023379248 0.06921336 0.09537233 0.050486308 0.070703894 0.0920607 0.0017450985 -0.07495702 -0.0049419175 0.051602103 -0.036774084 0.14353107 0.123002 0.018433878 0.0023659926 -0.05032992 0.00797082 0.008006511 0.0036587308 0.0845188 0.013972384 0.029579196 0.18615107 0.07291466 0.053517096 0.025659094 -0.09574375 0.03681652 0.05770908 0.0040322067 0.013760083 -0.117357016 0.033477426 0.18739903 -0.054913227 -0.0369879 -0.06519861 0.0029549464 0.026334101 0.017208315 0.11596242 -0.051488232 0.09238102 0.095887385 0.046286307 -0.048273697 0.10907608 -0.048946463 -0.106199354 0.04226949 -0.016413338 -0.0073854597 0.061184365 0.104308695 0.019545725 -0.13617253 -0.058217477 -0.10856925 -0.0770973 0.100182645 0.106462926 0.10406773 0.035616484 0.015154964 0.016841771 -0.015813757 -0.015981957 0.019218551 0.036250066 -0.0438233 -0.08065137 0.0018117364 -0.07614798 -0.0047256975 -0.018834455 0.03760029 -0.013859032 0.008718104 0.061067425 -0.023236262 0.122041225 -0.009819908 -0.024934717 -0.096409775 8.121086e-05 -0.012035342 0.050412834 -0.034392826 -0.070093185
dbo:MeanOfTransportation -0.047427796 -0.1560394 -0.03675445 0.055524565 0.092072025 0.004434545 -0.21280998 0.103127584 -0.05784118 0.121897675 -0.053143222 -0.035730787 0.17372483 0.20892169 0.0751383 0.10804409 0.13340434 0.02773757 -0.1164857 -0.023239523 0.06693132 -0.037848562 0.24562562 0.16712639 0.09855243 0.04111915 -0.15712698 -0.04098603 0.05870868 -0.0015863185 0.15198372 0.055348817 -0.010696214 0.30087087 0.086721204 0.08989057 0.040109877 -0.10699488 0.042727124 0.09431632 -0.033455946 0.007483151 -0.1918616 -0.029252846 0.29770795 -0.13263178 -0.03279994 -0.083184086 -0.031136887 -0.014378925 -0.015849497 0.20720744 -0.10426778 0.12464372 0.21334706 0.071215525 -0.10592734 0.2179277 -0.07153116 -0.23400708 0.06226748 -0.030201381 -0.03673359 0.12432522 0.19586053 0.024294173 -0.21689816 -0.056539834 -0.2053563 -0.14254877 0.17035328 0.15744083 0.18114677 0.077747434 0.073699646 0.0062608435 -0.02370616 -0.04326583 0.011556416 0.052897114 -0.04692076 -0.13123244 0.047726955 -0.1286873 0.024172401 -0.023613708 0.08463849 -0.006442034 0.028601097 0.09877157 -0.07232471 0.22037646 -0.057567816 -0.06309554 -0.165783 0.049150746 0.042441122 0.048442353 -0.0692896 -0.11052385
dbo:Writer -0.019921038 -0.066666365 -0.03015486 0.032105077 0.03934688 0.02244012 -0.15506151 0.031770453 -0.044845037 0.0837903 -0.011691763 -0.020678284 0.099524535 0.08091318 0.055888746 0.050675187 0.08722658 0.0076208888 -0.08815917 -0.0019641495 0.04052799 -0.045856375 0.14441799 0.12601708 0.03598872 -0.036230505 -0.06371954 0.0026667006 0.007366697 0.015568051 0.05804134 0.025498245 0.025522096 0.20096044 0.06091074 0.043447573 0.027715452 -0.08392711 0.030498575 0.07280035 -0.012034232 0.013072439 -0.11363675 0.027252687 0.17150171 -0.07106937 -0.014988821 -0.07135632 -0.020383278 0.017442554 0.017538559 0.08976855 -0.08546922 0.060324498 0.1276938 0.062502354 -0.052595954 0.08924294 -0.029444024 -0.11823624 0.019462533 -0.023259746 -0.034425154 0.08152504 0.11741695 0.041084174 -0.14093454 -0.058743685 -0.114534795 -0.062066153 0.09827646 0.09816169 0.11352481 0.057513513 0.019409293 0.008504275 -0.02218984 -0.039331112 0.023878014 0.030887026 -0.0362524 -0.07268365 0.0043894933 -0.06960976 0.008419371 -0.018675126 0.020284107 -0.022528632 0.046229444 0.03982598 -0.026453322 0.12679714 -0.023591239 -0.04230811 -0.08020349 -0.0047417353 -0.0020219458 0.03760163 -0.028470518 -0.06448171
dbo:RecordLabel -0.01781119 -0.035977654 -0.033332318 0.02144086 0.005591441 0.028011596 -0.1563395 -0.029377447 -0.06577419 0.06458657 0.00074319704 -0.03024912 0.07515242 0.034134164 0.04784368 0.038278863 0.076323524 -0.0013492729 -0.09108583 0.01091717 0.041695394 -0.060330793 0.111375235 0.13188219 0.010245544 -0.08916748 0.0060689365 0.041112393 -0.018790806 0.038933348 0.0185014 0.010107526 0.049141627 0.1835516 0.06198666 0.025567783 0.032830343 -0.09737628 0.022378279 0.09154908 -0.015007472 0.027735298 -0.099302895 0.06710046 0.13066407 -0.031600133 -0.012377661 -0.078619555 -0.017453317 0.026952164 0.04003254 0.01607024 -0.068201385 0.016458308 0.119643934 0.08574354 -0.038853545 0.046566315 -0.014828591 -0.08630209 0.020250604 -0.027787093 -0.04285983 0.06631359 0.10999361 0.064337604 -0.10968177 -0.090789564 -0.09929669 -0.022717914 0.06701934 0.08674336 0.08671387 0.06067431 0.0013811802 0.021182481 -0.038096953 -0.053837437 0.039690025 0.026624633 -0.03516087 -0.046481352 -0.014009869 -0.036182735 0.008403829 -0.025117429 -0.010833373 -0.02667929 0.074846126 0.0031695385 0.0065727243 0.10761727 0.022180628 -0.056548025 -0.048486248 -0.027657082 -0.0022532293 0.040659584 -0.00836073 -0.0486056
dbo:MilitaryUnit -0.016750382 -0.05300974 -0.023955496 0.019751798 0.02223419 0.01893422 -0.14276598 0.0019120572 -0.049688302 0.07416878 -0.01071742 -0.031338744 0.08528892 0.06447603 0.041726228 0.047125455 0.06929496 0.009194832 -0.07656119 0.009197353 0.042935614 -0.044992868 0.12136022 0.12003821 0.02573516 -0.049337562 -0.028975412 0.022189375 0.0034054818 0.030866224 0.043024376 0.013096252 0.02733425 0.17958033 0.05846922 0.032583944 0.029277522 -0.08295309 0.024222227 0.07851507 -0.01531436 0.01801836 -0.11058212 0.040650263 0.1510682 -0.044546645 -0.008540367 -0.065320954 -0.022298511 0.013027848 0.021520957 0.05944688 -0.06595439 0.040096704 0.11863243 0.07557815 -0.046148084 0.074922994 -0.024355132 -0.1017948 0.02510118 -0.01729663 -0.03083018 0.06844496 0.11142262 0.04244781 -0.11942999 -0.066522874 -0.10178714 -0.038856603 0.08359834 0.081536144 0.09317807 0.050571885 0.017264612 0.016990505 -0.023853239 -0.041313525 0.02026335 0.019879507 -0.0317641 -0.056082483 0.008705847 -0.045280814 0.015639467 -0.010962143 0.010151992 -0.012872191 0.03876232 0.024875345 -0.021753268 0.108175986 0.00611353 -0.046000164 -0.06262922 -0.0057989415 -0.00060948316 0.04002986 -0.019747334 -0.060880862
dbo:Politician -0.010767745 -0.07346774 -0.036893398 0.037255228 0.0416736 0.03196653 -0.16625729 0.04212383 -0.061730456 0.080501445 -0.020178903 -0.034032933 0.109811924 0.10062515 0.058343377 0.058798533 0.094514005 0.00547369 -0.08992169 -0.009539464 0.036932383 -0.057422996 0.16625264 0.1408286 0.05001289 -0.04529534 -0.06897458 -0.0051578637 0.0026196633 0.012376789 0.05900259 0.024533857 0.016196854 0.22742432 0.08070154 0.06466476 0.032610975 -0.09909373 0.049319055 0.09168694 -0.015074774 0.005699384 -0.13863595 0.032594856 0.19541144 -0.08039342 -0.009880642 -0.066351414 -0.024241148 0.02001813 0.014834567 0.10003661 -0.100675754 0.05578018 0.1388155 0.08058216 -0.06771631 0.10027708 -0.04231659 -0.14414753 0.018683767 -0.026417436 -0.04580502 0.088454425 0.14275627 0.048282314 -0.15348014 -0.07817219 -0.12845035 -0.08208934 0.11042318 0.122202836 0.12032264 0.0751611 0.023520436 0.007842576 -0.03432149 -0.050954226 0.023358803 0.026913626 -0.03226716 -0.079610005 -0.0018581317 -0.083872356 0.021366049 -0.01732727 0.02925317 -0.028064232 0.048092213 0.04036563 -0.03612469 0.13597202 -0.033878945 -0.060209602 -0.08892226 -0.006239796 0.0023473352 0.051116377 -0.03472602 -0.06921845
dbo:Gene -0.047304586 -0.09233032 -0.031398356 0.02614927 0.065277666 -0.008764279 -0.16378401 0.052046597 -0.04490028 0.116325565 -0.020427015 -0.02464079 0.13001016 0.13547404 0.06790536 0.075792156 0.10380215 0.0120586315 -0.08956564 0.014268106 0.031790696 -0.042611007 0.15081708 0.15737316 0.059054527 -0.008362754 -0.09927423 0.0059889564 0.034873873 0.023127764 0.098440655 0.035747748 -0.022852236 0.2259198 0.0704748 0.08046505 0.034227237 -0.088141106 0.0342068 0.046109986 0.00022235597 0.031246008 -0.15870228 0.013655219 0.24058901 -0.11964766 -0.035885718 -0.055122342 -0.013422072 0.00038575745 0.0030306615 0.15279017 -0.078891754 0.06925383 0.18335816 0.06615259 -0.06402202 0.14187549 -0.03040722 -0.14870715 0.020794034 0.001721357 -0.047527533 0.12121414 0.15582548 0.035558034 -0.14674918 -0.07035283 -0.15521199 -0.09535112 0.13097085 0.12761469 0.12172235 0.060213875 0.0727422 -0.0073275175 -0.02243968 -0.05897549 0.014219305 0.028464144 -0.05805902 -0.13327715 0.017204678 -0.070241585 0.03925708 -0.009301562 0.048100892 -0.039817892 0.020128671 0.08874787 -0.02713045 0.17202672 -0.03323223 -0.05027378 -0.107572295 0.019384565 0.045437716 0.048488375 -0.024981096 -0.0954045
dbo:Deity -0.024171455 -0.08032627 -0.028338188 0.035740755 0.03799338 0.0073388023 -0.14097378 0.03357411 -0.0423476 0.07501121 -0.022504415 -0.02544186 0.09554743 0.096075535 0.050510786 0.05579976 0.08091642 0.013605345 -0.07986987 -0.008922857 0.03658378 -0.028912067 0.13649668 0.11464805 0.043019023 -0.015174088 -0.073171355 -0.0067106443 0.01715329 0.013144362 0.06786452 0.02994956 0.006399813 0.17904025 0.057601176 0.048970386 0.022516502 -0.07393015 0.027613457 0.06386437 -0.00922797 0.008944991 -0.109712385 0.009479537 0.16170593 -0.07101514 -0.019018004 -0.06202652 -0.019271892 0.0024898008 0.008544851 0.10103528 -0.07325944 0.06580522 0.12660563 0.061333057 -0.05313447 0.10303467 -0.034556314 -0.11934636 0.035881605 -0.023203572 -0.033906344 0.07559166 0.119219765 0.026767192 -0.12503865 -0.05114562 -0.113385014 -0.066267885 0.09169835 0.100251205 0.10603283 0.04033209 0.03301772 0.009791348 -0.017960818 -0.034541167 0.02125515 0.02616889 -0.025191389 -0.072685994 0.016863216 -0.072272696 0.02180908 -0.019365458 0.03204797 -0.008154016 0.03278353 0.03470395 -0.029870972 0.12138351 -0.020374676 -0.03569594 -0.08736415 0.0036757318 0.011696679 0.03578228 -0.026992934 -0.05775047
dbo:Game -0.022286426 -0.08692178 -0.02089644 0.04796501 0.02251598 -0.0035002895 -0.1336097 0.031942185 -0.0330282 0.058514237 -0.030017883 -0.025811613 0.07751964 0.10229488 0.05065976 0.063968904 0.09064338 0.013221922 -0.08758392 0.007396953 0.05238845 -0.029684369 0.14093854 0.10916953 0.032296557 -0.000391284 -0.059166435 -0.0055133943 0.013165742 -0.00091711915 0.090821914 0.0166853 0.026582632 0.19002943 0.06814955 0.05984591 0.01848986 -0.087493956 0.030004792 0.060883828 0.008216246 0.0006694764 -0.11811712 0.011681509 0.18675873 -0.06265098 -0.03525565 -0.060072895 -0.008050189 0.016886745 0.007140422 0.12144085 -0.049418904 0.08377228 0.10973138 0.040402837 -0.055823058 0.10407197 -0.043878153 -0.12258402 0.03396465 -0.02589714 -0.0095936805 0.06827329 0.093625166 0.013642869 -0.14624882 -0.055034377 -0.11124585 -0.06657435 0.1058705 0.09547785 0.11236066 0.033356734 0.022400862 0.006509848 -0.00030264712 -0.018416278 0.009677759 0.038100623 -0.04878643 -0.08537316 0.016191011 -0.07710102 -0.0070501654 -0.028247498 0.02506413 -0.012584456 0.004622094 0.06265551 -0.02714595 0.11455537 -0.023965457 -0.028444506 -0.08709515 0.0062429504 -0.0017848138 0.049760956 -0.037593782 -0.06961973
dbo:EthnicGroup -0.029895552 -0.09874009 -0.026249621 0.03199248 0.051789686 0.0014659209 -0.1283493 0.06313294 -0.036874432 0.076317824 -0.026977137 -0.017881004 0.09565577 0.121358074 0.050433993 0.062257506 0.07401654 0.01589492 -0.06655233 -0.01956875 0.040576614 -0.022089917 0.14363144 0.09406819 0.058869824 0.0263318 -0.095972635 -0.028385818 0.035403766 0.0024674032 0.096794 0.035886887 -0.002936885 0.17278256 0.042506877 0.058405463 0.028209055 -0.06637393 0.02914558 0.056030855 -0.021228004 0.010071211 -0.1170388 -0.011747172 0.17222142 -0.08267724 -0.0122060105 -0.049484055 -0.015921798 -0.00536069 -0.012426698 0.119846925 -0.0629578 0.07232731 0.12510139 0.046890885 -0.06595808 0.13213696 -0.04409649 -0.14265014 0.035674497 -0.012577636 -0.021369986 0.07050476 0.11381209 0.011531645 -0.12165542 -0.027802665 -0.111726746 -0.08793224 0.10257536 0.09562239 0.10061536 0.03762547 0.049712438 0.0043243496 -0.004637751 -0.017021125 0.0058689364 0.027362807 -0.021976396 -0.07448215 0.023081083 -0.07496335 0.017167075 -0.007682783 0.045900572 -0.0022907993 0.013259958 0.05963634 -0.043059923 0.12651272 -0.03365205 -0.029932713 -0.092640884 0.02843269 0.025406584 0.02154457 -0.036610704 -0.06379973
dbo:Mountain -0.024580363 -0.15440471 0.036292825 0.004083483 0.12644742 -0.021583213 -0.030768653 0.19412836 0.029340532 0.056978002 -0.028898003 -0.0119258845 0.098988324 0.16055715 0.0111676715 0.06355354 0.031194864 0.04102456 -0.027210914 -0.014918829 0.035131164 0.016224338 0.14971232 0.016657174 0.09844784 0.19463699 -0.16565199 -0.073439 0.07003937 -0.060533956 0.1904685 0.11540254 -0.062555775 0.095303155 -0.014871603 0.036421783 0.043825727 0.027783295 0.004394602 -0.005245315 -0.06318257 0.008110147 -0.14411815 -0.130057 0.16540033 -0.119263016 -0.018535139 -0.021725172 0.02269588 -0.034855794 -0.048853476 0.1911625 -0.013835462 0.08707154 0.09556405 -0.013256967 -0.118154995 0.18722314 -0.12733598 -0.18135448 0.059942104 0.004044008 0.02887525 0.010064965 0.15355083 -0.087657675 -0.09873436 0.094333835 -0.11397456 -0.15730816 0.14763781 0.034029245 0.065864205 0.036164276 0.14463478 -0.019304922 0.050336212 0.096822545 -0.03403461 -0.014488121 0.054275043 -0.054918315 0.11131888 -0.09099104 0.020230668 0.072816715 0.07783882 0.026492655 -0.09825278 0.11720615 -0.10842563 0.0661364 -0.10829399 0.010879106 -0.10816619 0.098626144 0.062315173 -0.0047750603 -0.07682953 -0.08901291
dbo:Scientist -0.017392231 -0.07214113 -0.024047649 0.035277877 0.03814835 0.01122775 -0.13199596 0.040813025 -0.045318875 0.072995834 -0.018163705 -0.022025896 0.096213214 0.09969098 0.050953835 0.050684236 0.07570539 0.016092345 -0.07795227 -0.0019928645 0.04066507 -0.030055054 0.13791032 0.114685774 0.042935807 -0.008057935 -0.07569916 -0.0033542113 0.012028902 0.015951926 0.064803466 0.028500613 0.00843158 0.17996186 0.060739964 0.04780475 0.031891678 -0.074765824 0.03073502 0.06503994 -0.009512152 0.013029249 -0.11218483 0.0137041025 0.167466 -0.066336095 -0.010516253 -0.055687048 -0.013733774 0.01152543 0.010881861 0.09909527 -0.07618321 0.058463596 0.12156532 0.059561845 -0.056629434 0.110617526 -0.040106997 -0.12626098 0.03111779 -0.019326366 -0.033077847 0.07294785 0.11241779 0.025099624 -0.12939985 -0.048817888 -0.11116066 -0.06964941 0.09493537 0.098246045 0.107014336 0.047105864 0.029061954 0.0049778195 -0.012277192 -0.033820473 0.018526936 0.023519345 -0.03150146 -0.07449295 0.010202215 -0.0661676 0.015837401 -0.012494488 0.03273883 -0.008339365 0.026503997 0.03868469 -0.031762514 0.124878675 -0.020938795 -0.044524714 -0.08495845 0.009787258 0.00673274 0.034166552 -0.022945203 -0.06266471
dbo:Bridge -0.070931695 -0.34736338 -0.023960778 0.13166636 0.1875827 -0.0098372 -0.29182884 0.24549666 -0.07633134 0.20464021 -0.084148645 -0.027709179 0.21229096 0.3845124 0.05381858 0.13629308 0.15482531 0.04595928 -0.12774207 -0.08505999 0.009560032 -0.059905905 0.3507393 0.08491173 0.17662664 0.18551975 -0.31386432 -0.12319815 0.13661407 0.038585708 0.3017605 0.13858116 -0.060391996 0.2920559 0.07481521 0.20008805 0.083555534 -0.042906903 0.009260731 0.09160328 -0.043741222 0.012221496 -0.2694878 -0.10227565 0.42988202 -0.26867598 -0.00038538835 -0.014475014 -0.028081244 0.021773882 -0.13029131 0.42761296 -0.10021882 0.22232288 0.24836405 0.050185382 -0.13931185 0.43097317 -0.14678772 -0.36594748 0.11955041 0.044843376 -0.0057888012 0.16456708 0.20802322 -0.083809726 -0.24918792 -0.021284197 -0.26208588 -0.19639683 0.3040997 0.21690042 0.27906176 0.06565751 0.21826568 -0.027923297 0.015367437 0.014755628 0.014755372 0.03524046 -0.02004823 -0.12219922 0.010451885 -0.21558408 0.072658576 0.021570608 0.16829252 0.05791355 0.04451947 0.23007995 -0.093842275 0.2647034 -0.09659326 -0.02714099 -0.25645226 0.1205409 0.15651445 -0.008798523 -0.1734463 -0.14433755
dbo:AnatomicalStructure -0.047707282 -0.14968438 -0.03450795 0.04720871 0.08759381 0.0032204716 -0.2028494 0.09975729 -0.060687013 0.11815627 -0.047164224 -0.038814582 0.15964866 0.19608486 0.078020126 0.0935997 0.11701039 0.014611025 -0.11503657 -0.02123034 0.061870903 -0.028435864 0.2323825 0.16033168 0.088539094 0.04922679 -0.14943346 -0.03909458 0.04824074 -0.0015296874 0.14720762 0.05505975 -0.017158315 0.27442205 0.06988222 0.08883474 0.04762005 -0.10389089 0.050031256 0.07916619 -0.022231506 0.009469609 -0.17685388 -0.023910647 0.2795141 -0.12723656 -0.029909117 -0.07128011 -0.02928225 -0.0027806282 -0.015972603 0.19978404 -0.105033144 0.12689917 0.20133477 0.07790467 -0.100272216 0.20539682 -0.080100134 -0.23191419 0.057211433 -0.021122009 -0.029305942 0.113416515 0.1888707 0.01645463 -0.19867903 -0.041755877 -0.18493588 -0.13469845 0.17121115 0.15046269 0.17041434 0.07182351 0.076376766 -0.0014673065 -0.011838213 -0.02807317 0.0066629625 0.043938432 -0.030733842 -0.12818898 0.041655235 -0.12443868 0.032729156 -0.012965728 0.07310132 -0.0046072328 0.015206011 0.09252167 -0.0711323 0.19943279 -0.06332975 -0.05402431 -0.14652404 0.041951895 0.033035625 0.045895655 -0.06037971 -0.10625438
dbo:Language -0.04097058 -0.13158675 -0.03390026 0.046057817 0.07506972 0.015270291 -0.18254222 0.079631746 -0.05887192 0.09247898 -0.04280674 -0.024900705 0.12166771 0.16401987 0.07212706 0.083614126 0.10538886 0.022969928 -0.09943463 -0.02071528 0.0514832 -0.025537297 0.18791209 0.14260335 0.06514741 0.01914803 -0.13184838 -0.025542712 0.05073541 -0.0016716635 0.111611634 0.040130544 -0.0035429252 0.23857169 0.055197313 0.07771364 0.031628277 -0.09362122 0.041854065 0.07689147 -0.021561643 0.0034382716 -0.1505048 -0.010540045 0.22867775 -0.107838646 -0.024678951 -0.058761172 -0.017261986 -0.0071969316 -0.009581115 0.14957115 -0.084081694 0.111363254 0.16078466 0.07259449 -0.079511344 0.16420893 -0.06904228 -0.18881877 0.045708623 -0.02381313 -0.034835525 0.10691124 0.14998715 0.009590868 -0.17551671 -0.04466349 -0.16068664 -0.1167346 0.13911955 0.13041759 0.13613439 0.058576748 0.064337075 0.008318896 -0.009615414 -0.029539278 0.0083587 0.044292957 -0.038227957 -0.095386505 0.04170883 -0.09574121 0.031660452 -0.018155077 0.057773825 -0.01016662 0.012157712 0.065231204 -0.0444849 0.16400637 -0.038744062 -0.03799276 -0.11544919 0.029461198 0.027916444 0.033059105 -0.044808462 -0.08383392
dbo:FictionalCharacter -0.028178701 -0.109366246 -0.036867842 0.043003175 0.060700558 0.010229782 -0.1787611 0.074166656 -0.047032673 0.09614421 -0.02938447 -0.03014748 0.13104038 0.14210135 0.06776672 0.07114644 0.0967891 0.016347315 -0.09326103 -0.015621239 0.051738758 -0.028915923 0.18473886 0.13108873 0.06832832 0.015180614 -0.11533827 -0.022095345 0.035106234 0.014977782 0.104188934 0.04291553 0.00087723765 0.22932431 0.06284728 0.07344665 0.031309545 -0.09690385 0.04164382 0.07696395 -0.01594298 0.0073259366 -0.14833511 -0.007695592 0.2274224 -0.10174309 -0.018457277 -0.06291642 -0.022735072 0.001451948 -0.005009779 0.14571111 -0.08661122 0.09564159 0.15691549 0.06907912 -0.07571353 0.161673 -0.057560295 -0.17259075 0.040851813 -0.018391473 -0.033346415 0.09932285 0.15128523 0.02653573 -0.16565134 -0.04570553 -0.14165153 -0.10232833 0.13449027 0.12864636 0.13838863 0.057786353 0.053244103 0.004125883 -0.011613889 -0.03386495 0.01167542 0.0332819 -0.028384108 -0.09307394 0.024753135 -0.101522595 0.027311927 -0.019568074 0.05358071 -0.01038739 0.021687333 0.06135842 -0.042059902 0.15744899 -0.03371218 -0.04749842 -0.11504955 0.026029572 0.02043674 0.0386498 -0.040618833 -0.083991475
dbo:Single -0.012190172 -0.072731756 -0.04789362 0.016942626 0.03708152 -0.011488128 -0.13648011 0.036104657 -0.054229338 0.078908466 -0.036198873 -0.021550965 0.09835705 0.11210174 0.06106938 0.06758549 0.10699483 0.012824942 -0.07633879 -0.01053264 0.041671604 -0.05226561 0.13936268 0.15452251 0.06049823 -0.027137533 -0.05633129 -0.015045109 0.01967559 -0.013523116 0.05906803 0.02148632 -0.018655483 0.18698949 0.05557465 0.061208665 0.0088010505 -0.08750377 0.08137098 0.073082276 0.0052849595 0.010109911 -0.09494968 0.048994932 0.17679432 -0.040531736 0.012509317 -0.07951629 -0.044439297 0.0063257427 0.012616253 0.10755521 -0.088073194 0.09143437 0.13719186 0.0474525 -0.07144175 0.12991147 -0.021066109 -0.12895161 0.02554272 -0.03951691 -0.026851144 0.068060234 0.105566815 0.064697936 -0.14676444 -0.044992022 -0.11347579 -0.072652474 0.079420954 0.12769285 0.090498745 0.04937481 0.0035355247 0.018988956 -0.049301457 -0.07509 -0.0026262696 0.053996515 -0.04056532 -0.1022288 0.03936217 -0.09904407 0.004247288 -0.04240989 0.046468817 -0.0034932652 0.024769044 0.030087471 -0.006802263 0.13208953 -0.0154598495 -0.033589035 -0.099561274 -0.017213315 -0.0075568873 0.033316676 -0.0071062366 -0.07612992
dbo:Device -0.03639205 -0.13900582 -0.041385483 0.051478136 0.08396466 0.009774934 -0.20102996 0.099040836 -0.0515428 0.10975754 -0.04841691 -0.029967649 0.1495371 0.18301198 0.071503304 0.0856206 0.113805324 0.021106541 -0.114103064 -0.013282923 0.05783972 -0.0323788 0.2305685 0.16285789 0.08541188 0.042740926 -0.14489321 -0.040479578 0.04514815 -0.0053116423 0.1390278 0.0657675 -0.008713052 0.27061063 0.079973355 0.0820629 0.048730634 -0.10095385 0.044172015 0.08482572 -0.021296201 0.016612759 -0.17889172 -0.017484419 0.27565643 -0.12073045 -0.015817717 -0.07052296 -0.02385874 -0.00059889216 -0.007368478 0.19572136 -0.108159505 0.108352 0.18784514 0.07728413 -0.11194182 0.21420358 -0.07210765 -0.21438994 0.058603358 -0.014141067 -0.03150324 0.1198752 0.1926404 0.005803952 -0.19427027 -0.0414214 -0.17373939 -0.1276114 0.16174318 0.14343034 0.16760507 0.07406908 0.06498188 0.0042140298 -0.008831459 -0.035313 0.011467532 0.051291928 -0.029574597 -0.115262136 0.052063268 -0.12328559 0.028501635 -0.010296648 0.069894545 -0.00382767 0.011549637 0.08235265 -0.06883849 0.19446072 -0.047062628 -0.05152899 -0.13985929 0.030941932 0.038069244 0.042407937 -0.06474546 -0.10437479
dbo:Island -0.032197636 -0.11113558 -0.00877842 0.040246658 0.0929638 -0.01787537 -0.043101713 0.12748474 0.010520949 0.045057993 -0.037278965 0.0030188647 0.059216574 0.16595782 0.01786776 0.037375 0.00782433 0.0111008175 -0.009008579 -0.043923598 0.0078024403 0.052008808 0.08538778 -0.016581323 0.06855464 0.1611291 -0.15926683 -0.07652665 0.07641266 -0.032075748 0.14725989 0.057888012 -0.055778943 0.039351292 -0.019156894 0.056158565 0.014949974 0.002539888 -0.00983944 -0.026260767 -0.014175637 -0.007969173 -0.033209737 -0.13034211 0.115009084 -0.08426406 -0.008386484 0.03551229 -0.017012937 -0.04280228 -0.068251245 0.16381216 -0.0007170596 0.07218691 0.05658167 -0.018536596 -0.06003221 0.14290491 -0.06300275 -0.1409704 0.04736564 0.03293505 0.008294159 0.05016168 0.0567233 -0.08334095 -0.034598053 0.04656885 -0.07473859 -0.09521809 0.10608449 0.0321209 0.07041155 0.010985718 0.10559306 -0.03407802 0.02543614 0.051168863 -0.014298988 -0.0045487783 0.01831088 -0.042628594 0.055299666 -0.05556266 0.032859147 0.022588134 0.070586674 0.04258644 -0.042181328 0.078826495 -0.069528155 0.07392825 -0.068630986 0.0045651468 -0.079261616 0.07938489 0.05383539 -0.017891528 -0.060427573 -0.033835348
dbo:HockeyTeam -0.02424026 -0.081245445 -0.04136225 0.039045688 0.023888953 0.015772881 -0.22191654 -0.019966155 -0.097943164 0.095426604 -0.022624156 -0.037592854 0.1208636 0.084592625 0.06768669 0.0627606 0.1028885 0.009776051 -0.11481003 0.030319225 0.063826665 -0.067797914 0.16133 0.1706591 0.040110797 -0.07066154 -0.040536102 0.035119556 -0.00614233 0.04788529 0.059664432 0.014933221 0.049063556 0.24533573 0.070410036 0.034764476 0.036462042 -0.11803336 0.025971137 0.103561394 -0.029364621 0.04421392 -0.13463497 0.046566855 0.1918949 -0.079548776 -0.021382464 -0.106289 -0.029947411 0.014517868 0.03149335 0.06902688 -0.10694137 0.054162066 0.17354417 0.11207478 -0.07930747 0.09286398 -0.049864948 -0.12908347 0.045921303 -0.035471726 -0.04931517 0.088558175 0.16141526 0.077098474 -0.14795046 -0.08821138 -0.13204007 -0.040780462 0.10912142 0.104706086 0.14775401 0.06088497 0.019520508 0.009254174 -0.036631208 -0.05455041 0.035103727 0.030348243 -0.057338215 -0.08622083 0.004838198 -0.054423235 0.025816862 -0.017617563 0.017641276 -0.029586483 0.057216555 0.023156889 -0.011783388 0.16002548 0.030303486 -0.055534266 -0.07816335 -0.027523203 0.017359415 0.046349287 -0.009302694 -0.07669471
dbo:Magazine -0.027551563 -0.08438673 -0.07790342 0.001505854 0.036448535 0.0007322518 -0.1747185 0.04449418 -0.050162688 0.1151557 -0.056703694 -0.024821445 0.10969942 0.12403461 0.05091617 0.070765086 0.16046831 0.019829808 -0.09074724 0.001101358 0.09875958 -0.05848964 0.19696553 0.21167837 0.08488105 -0.010513798 -0.08404619 -0.034050625 0.040411755 0.019572368 0.07391475 0.02552031 -0.036130823 0.23220065 0.06992256 0.078557 0.020389834 -0.1013791 0.13590449 0.0808067 -0.0152452905 -0.008938849 -0.15091617 0.0545105 0.22651727 -0.07182127 0.014816326 -0.088420086 -0.063483015 -0.0047007776 0.016494434 0.16166823 -0.13539787 0.11612252 0.17213197 0.09302124 -0.09347684 0.13811648 -0.021283662 -0.17285044 0.010417639 -0.040500656 -0.027912192 0.09420038 0.19155805 0.09502684 -0.20767914 -0.041436918 -0.16153161 -0.11064756 0.1427561 0.16475987 0.13909386 0.03524682 0.008308718 0.046093732 -0.0838033 -0.08616111 0.025755722 0.059483808 -0.0782711 -0.18129694 0.046984427 -0.13784552 -0.011452132 -0.06168539 0.048270766 -0.003536669 0.026740914 0.011379522 0.010420723 0.17806853 -0.017188191 -0.05950666 -0.11536052 -0.029733945 0.0041356557 0.06797643 -0.037633494 -0.09113474
dbo:BaseballTeam -0.017748376 -0.05739533 -0.034963317 0.030344289 0.008966956 0.018914634 -0.19254406 -0.03331932 -0.084045626 0.07529574 -0.01503219 -0.032196995 0.10198213 0.053753734 0.05758485 0.047710124 0.0851207 0.008068974 -0.10021359 0.023438772 0.05664909 -0.060152605 0.12674074 0.15252693 0.018092087 -0.07376248 -0.02366542 0.03413908 -0.023042742 0.041188113 0.02972342 0.009046326 0.05176207 0.21087098 0.06420134 0.023086403 0.037310738 -0.09979551 0.02838773 0.093136445 -0.014213066 0.04278999 -0.116522215 0.055578515 0.15422586 -0.05900221 -0.02137357 -0.08909025 -0.021051707 0.014521874 0.036041413 0.048456583 -0.08710114 0.030576989 0.1481986 0.10423141 -0.059814803 0.06659523 -0.03581729 -0.09315308 0.036398076 -0.03450996 -0.043701142 0.07453352 0.12545948 0.06579421 -0.12088992 -0.08668273 -0.10701219 -0.026103333 0.08559006 0.09617872 0.11915331 0.06061358 9.787327e-05 0.017136045 -0.036835458 -0.049841244 0.032316618 0.023128219 -0.054844573 -0.07029854 -0.01281361 -0.039257374 0.02337444 -0.01637849 0.0018050113 -0.022236286 0.06613501 0.012780379 -0.0056430595 0.12874193 0.03578405 -0.054671403 -0.06258162 -0.025271045 0.003986992 0.038638294 -0.009371418 -0.062784016
dbo:SoccerPlayer -0.048462603 -0.16770256 -0.043013275 0.063461706 0.09745503 0.0077731996 -0.2638269 0.11588915 -0.06346894 0.14515056 -0.052170362 -0.03851695 0.19692871 0.21507327 0.098412916 0.11293468 0.14432181 0.024841897 -0.13150759 -0.019326048 0.0755521 -0.042502746 0.2834946 0.19502923 0.101908594 0.027370086 -0.16870064 -0.038955994 0.057048008 0.015718348 0.16738613 0.07347615 -0.0079272175 0.34469864 0.100594096 0.117792845 0.052573342 -0.13940606 0.06651786 0.11864608 -0.030489186 0.025322696 -0.22043532 -0.011337364 0.33219105 -0.14401567 -0.033096317 -0.10488719 -0.038096454 -0.0022540006 -0.012747722 0.23255102 -0.13295661 0.13921078 0.23272483 0.09252333 -0.11904702 0.24137582 -0.090281434 -0.25935254 0.06357718 -0.028518863 -0.049140714 0.15015596 0.23174553 0.0375933 -0.24546771 -0.06821194 -0.21122336 -0.158493 0.20637657 0.18809955 0.20477015 0.087604694 0.073338866 -0.0053474247 -0.023749487 -0.04101865 0.026069362 0.04542 -0.05455499 -0.15284644 0.043346632 -0.1431618 0.022833876 -0.028419584 0.07677714 -0.0012950138 0.03224776 0.085529596 -0.07565607 0.24850981 -0.06195903 -0.06721826 -0.16614029 0.031264745 0.030123446 0.053679876 -0.07354044 -0.13382564
dbo:MusicGenre -0.014891565 -0.08038465 -0.039834898 0.01962366 0.054098707 0.018871112 -0.13627598 0.030580463 -0.042124007 0.053049926 -0.03404945 -0.044933803 0.10174042 0.103609435 0.048286125 0.06076487 0.09089997 0.0058635385 -0.09272275 -0.02793209 0.060704507 -0.044143777 0.16297252 0.111534595 0.060031865 -0.006848555 -0.09752222 -0.025404887 0.039506555 0.006640891 0.08314621 0.0150743695 0.017436488 0.19773972 0.06467503 0.04852614 0.026790703 -0.07871657 0.052572493 0.059068065 -0.01816594 0.008633578 -0.13814422 0.01659173 0.17783874 -0.08509707 -0.017258676 -0.067866534 -0.026140029 -0.014591634 -0.0020741897 0.10693459 -0.076153666 0.08299783 0.14210626 0.054007377 -0.04799822 0.12545009 -0.040290102 -0.14515302 0.04255978 -0.029822974 -0.017778274 0.081283025 0.12028056 0.025593992 -0.14356835 -0.03287187 -0.13247648 -0.09105798 0.08454336 0.121022694 0.113008164 0.028248727 0.030229425 -0.002652498 -0.04370038 -0.04532772 -0.0022031073 0.0562801 -0.0321323 -0.098937884 0.021434586 -0.095446564 0.007842939 -0.025438067 0.03753756 -0.0016534482 0.028913584 0.04276015 -0.042078275 0.1346443 -0.044198845 -0.052756093 -0.100096345 0.015986985 0.021075979 0.03211036 -0.04649422 -0.077812366
dbo:Mammal -0.100719236 -0.3230732 -0.104394875 0.13696602 0.20854715 0.011851585 -0.5123873 0.23988415 -0.15942818 0.296672 -0.1082288 -0.08708279 0.40534183 0.49145523 0.21655038 0.24000941 0.2576519 0.050586943 -0.32872117 -0.070121035 0.14173163 -0.08359319 0.58517003 0.41477042 0.24251017 0.09235646 -0.3658149 -0.1097757 0.14056236 0.0012612897 0.36055955 0.112543374 -0.037524287 0.6790852 0.17495036 0.20632577 0.111499526 -0.28737313 0.124015614 0.20803069 -0.07863374 0.016347798 -0.4382262 -0.07542043 0.6871744 -0.29174355 -0.08627468 -0.1864725 -0.10175461 -0.003977688 -0.030200278 0.43296745 -0.2831509 0.33305684 0.48537022 0.18610369 -0.25923613 0.49644175 -0.17994644 -0.5758586 0.16347185 -0.03262062 -0.09472698 0.27986336 0.46833622 0.05423315 -0.5116769 -0.14610681 -0.4453839 -0.33151966 0.39301637 0.41054377 0.40726486 0.17362535 0.19022085 0.00079396344 -0.013601894 -0.102059975 0.043363735 0.10879467 -0.08717398 -0.29540294 0.13359772 -0.28143406 0.08400932 -0.043688636 0.18876675 -0.025200564 0.022240097 0.1962203 -0.12770909 0.50400156 -0.17371906 -0.13393982 -0.35865083 0.073988505 0.06931304 0.11253751 -0.13695535 -0.26706168
